solver_type L2R_LR
nr_class 7
label 0 1 2 5 6 3 4
nr_feature 19629
bias -1
w
0 0 0 0 0 0 0 
0 0 0 0 0 0 0 
0 0 0 0 0 0 0 
0 0 0 0 0 0 0 
0.7726785718008967 -0.7862296246557663 -2.094479234515883 -0.9277834697265476 -2.327988036077114 -0.5508579818492008 -1.803052261711301 
0 0 0 0 0 0 0 
0 0 0 0 0 0 0 
0 0 0 0 0 0 0 
1.171930352064165 -1.690947874586805 -0.5070818043860781 -1.468699508997397 -1.504929217792524 -1.182478499135363 -1.48159106724348 
0 0 0 0 0 0 0 
0 0 0 0 0 0 0 
0 0 0 0 0 0 0 
0 0 0 0 0 0 0 
0.7726785718008967 -0.7862296246557663 -2.094479234515883 -0.9277834697265476 -2.327988036077114 -0.5508579818492008 -1.803052261711301 
0 0 0 0 0 0 0 
0 0 0 0 0 0 0 
0 0 0 0 0 0 0 
1.171930352064165 -1.690947874586805 -0.5070818043860781 -1.468699508997397 -1.504929217792524 -1.182478499135363 -1.48159106724348 
-2.435915670821428 -0.06421725117532481 0.1407100227412516 1.607945614328551 0.8923863807403117 1.345628350757603 0.3863798209017401 
0.2582624448092163 -0.9336035444560493 1.252130239292595 -0.4525305320472936 -0.2103120301211735 0.05954408256812917 -1.189046480234121 
0.1492338328624171 -0.01107703620029595 -0.0001006155570549127 -0.02603163317299479 -0.0009737598871541978 -0.01507185148237162 -0.0006675744366245471 
1.040140935121975 -0.5805594119206257 -3.106341920325317 -1.312222926409103 -1.211817119668935 -2.434503426753675 -2.221436843853918 
0.2568410412584989 -0.01240288691396145 -0.001874558170524597 -0.04539489906963951 -0.02182296630480278 -0.0387412688218965 -0.008722261648732868 
1.185128394213115 -2.249327219206142 -2.046116901094199 -1.990375155710616 -1.935812389575357 -1.934724636523829 -1.860382674005069 
0.4917579044368822 -0.1465339594682967 -0.008369040109186118 -0.08455816059176889 -0.06414228535098203 -0.145836911495674 -0.01560060235612559 
0.4787036328404544 -0.1447878920380754 -0.005405642613664287 -0.07899464756935909 -0.0569535047117686 -0.142916717732873 -0.01088138068446286 
1.746328467870294 -2.9549774433499 -2.706357331225924 -1.846856113841327 -1.348856596614774 -1.180232602004874 -1.967900594391146 
0.4787036328404544 -0.1447878920380754 -0.005405642613664287 -0.07899464756935909 -0.0569535047117686 -0.142916717732873 -0.01088138068446286 
-1.714676078430762 2.260041912842079 0.4764688837887125 -0.6623574890924729 -0.9604751008361434 0.9100081257675251 -0.669489642271718 
0.6425572193235463 -0.0668982484605499 -0.109677916861759 -0.009410949492760246 -0.1271475889655961 -0.003719831711416187 -0.07149725268199787 
0.6574954181830427 -0.07394913250008389 -0.1143956061075908 -0.02207021008006814 -0.1409294593414848 -0.01649745145809935 -0.07686955698171691 
0.5813772443180882 -4.043027544204563 0.7289233552688076 -4.24955896612738 -0.2513313978051578 -5.387435857963193 0.1604428826261837 
0.6425572193235463 -0.0668982484605499 -0.109677916861759 -0.009410949492760246 -0.1271475889655961 -0.003719831711416187 -0.07149725268199787 
0.6210967815406573 -0.06706621824711663 -0.1098393894417291 -0.008560683043689954 -0.1261913133707029 -0.003501527456404003 -0.0712062615467115 
0.6210967815406573 -0.06706621824711663 -0.1098393894417291 -0.008560683043689954 -0.1261913133707029 -0.003501527456404003 -0.0712062615467115 
0.7927044260559175 -0.07091782137786015 -0.1124207943747808 -0.1198429566418771 -0.1514937266072736 -0.07855431309372563 -0.08184053172159698 
0.5554820862153615 -0.01141037705848758 -0.3930213072783124 -0.02279943979175744 -0.05411780435444841 -0.0210585044764942 -0.05585293148810899 
0.533915929753366 -0.005243300378804161 -0.3892242797234501 -0.00189566373709224 -0.03182189849986902 -0.003979342146327137 -0.03985948080442429 
0.02372963198125644 -0.003510722448872071 -4.89804499355807e-05 -0.006985447393925226 -0.0008741224770880855 -0.004631531673133221 -0.000310037276923683 
1.010794532134246 -0.1494989920827744 -0.002510524091363144 -0.3016437631967551 -0.03728627039759839 -0.2167424540437709 -0.01456340071291576 
2.532267609517643 -3.277798813242588 -2.755923239424598 -3.088302444011129 -2.028231897320616 -2.957393389342832 -2.621369443576977 
-1.713995414236698 2.807026628410012 -0.1103781556971546 -0.4904314161466392 -0.5310692985623801 -1.633765972660686 -0.136533443808839 
-0.03392405398201092 0.07295706686460754 -0.002197965552445928 -0.05282844637410246 -0.01351983194526464 -0.0415652540531394 -0.003402775699704207 
1.543314299435641 -2.025810227627308 -3.514098691107252 -1.923562349158285 -2.451962077009565 -1.242291259279251 -3.031819662253561 
-0.03392405398201092 0.07295706686460754 -0.002197965552445928 -0.05282844637410246 -0.01351983194526464 -0.0415652540531394 -0.003402775699704207 
-0.1722615125419632 -0.005275721364848004 0.2875969532386896 -0.001935103133459756 -0.03247543275351414 -0.004047095719238648 -0.04043143108853719 
-0.1722615125419632 -0.005275721364848004 0.2875969532386896 -0.001935103133459756 -0.03247543275351414 -0.004047095719238648 -0.04043143108853719 
-1.402154189659981 -1.531559914933819 -0.05570050301243561 2.030823697739932 1.293714267740997 -1.078306253813656 -0.08057730844545533 
-0.8653562206152304 -1.528689601430892 -0.05557285026825467 1.394439157652818 1.296995583918824 -1.073286179779318 -0.08001981136434978 
-0.7887212364187872 -0.4673140128580939 -1.12555975123197 -0.1749267591596775 2.021782445271465 -0.1123810696410614 -0.6683029975893282 
0.1056176096805588 -0.6887941926740604 -0.4210766458106338 -0.2351854461236571 0.8366892051580981 -0.1736069668332774 -0.5155132414586668 
-0.894030608371868 -0.6698255753146942 -1.128527832516418 -0.2390072140610236 2.406090120119357 -0.2086950718854527 -0.672193069909153 
1.901694518791118 -0.134361243754421 -1.581047652129058 -0.05751598613519777 -0.4635567616499097 -0.1083914223692379 -0.5561075858702551 
2.12557947471412 -0.1386825137740834 -1.744375413257365 -0.05891372108283217 -0.4763638894001241 -0.1118642338920477 -0.5275522155560236 
0.04550532274538959 -0.01401892288679831 -0.008339685284011829 -0.04825769793442597 -0.01292125193787388 -0.02655127645167585 -0.008746431842938333 
2.215013740133265 -2.544510731897544 -2.668782437324429 -2.073709220074506 -1.98550931881999 -2.029145621714865 -2.435040720379032 
-0.5166259975381192 -0.484388960271585 -0.06491423381209031 1.191013226289906 -0.2116016371031461 -0.6606480110632064 -0.1514807264037575 
2.595425623958016 -2.670758607159417 -1.651408895885908 -2.117797235469173 -2.283942450406342 -3.09434675440941 -2.092188137381641 
-0.4608904020081565 -0.6071953422952538 -0.5655469520812361 -0.2323956081707901 1.58359471818133 -0.5398837100793297 -0.4054951717184292 
0.008198748984014534 -0.0004081053184578481 -0.000582464573859041 -0.009285593722174487 -0.01054134956206532 -0.005039321970272215 -0.001277391031633367 
2.244898623933389 -3.227069046873993 -2.710680962948528 -1.039947592163673 -2.234737620845291 -1.709391770344054 -2.801894681752432 
0.02932091731550599 -0.01523365825003357 -0.01558538788708245 -0.02456512202572845 -0.03200536221128855 -0.02432304959734646 -0.01684412091289032 
0.06588548730525745 -0.006128074790897681 -0.007889872976944476 -0.02456760782664102 -0.03736892073593463 -0.03144441839255484 -0.01396950888594877 
0.05561290691053033 -0.005087174161432966 -0.0008867145915009887 -0.01588147779424494 -0.02411627937908446 -0.01862362536057969 -0.006762243882774808 
2.125528775699218 -2.309654465503164 -3.095145747418249 -2.161243847894116 -1.98695570514403 -2.277735796127324 -1.983182237619392 
-0.3490941442249599 -0.2755996414185494 0.2389555246483369 0.08513330910761986 -0.3661161935156792 0.1730022037484138 -0.1413188676277155 
1.413227752093766 -1.252008019070727 -1.589274982460095 -1.647666417033449 -1.559144422409648 -1.897069887021876 -1.595374909003275 
0.03247941034697732 -0.001309210680488959 -0.002564588622651502 -0.01575910297638363 -0.0120791940662143 -0.009158313140499953 -0.01044187788550615 
1.132681791449717 -2.641726010381951 -2.374238621926143 -2.335293930909886 -2.234831613275889 -3.052538010813162 -1.847114041173245 
0.02180223357321145 -0.007155967067733747 -0.003300756164697119 -0.004992356720163361 -0.01021861253600591 -0.002072027396906933 -0.004990454113787617 
0.04809436388209445 -0.02365842699342036 -0.01302419684164621 -0.02405801124840912 -0.02133113868759726 -0.009799912800602981 -0.008844122420660259 
2.22076364056849 -1.703070351231908 -2.403691281795898 -2.491334017498942 -2.152660692130969 -3.181327004983684 -2.561255548838672 
1.76705094656362 -1.418754424849271 -1.668534959895519 -2.121676196609916 -1.805084455941364 -1.789003008658659 -2.08488339945416 
0.3322489417066723 -0.2970082068115829 -0.5127968983006006 -0.2072264373330673 -0.323025490712208 -0.2229856126028484 -0.3022061311636881 
2.315331621295285 -1.8911031657066 -2.372077604102602 -1.653424586608763 -2.209928943357746 -1.638662531791 -2.263914095722079 
0.1776554184720426 -0.07042621272498165 -0.2403451349439067 -0.2955755461830962 -0.2055264645043193 -0.3820365900065362 -0.249916918151516 
0.002741854199243515 -0.003681624183672673 -0.001105345236405729 -0.003408027660382357 -0.002179398269042234 -0.001340049010741641 -0.002684935969759223 
1.63318235964757 -1.10240718890061 -1.707773700415132 -1.532532564219425 -1.885993719287577 -1.916325732224956 -1.701075226385567 
0.02065752728880866 -0.01687124059517352 -0.007583571587604589 -0.0181531052865324 -0.01558604519008114 -0.02186583424584269 -0.01164018261931656 
1.93666920169789 -2.09971088701264 -1.755290794855367 -1.666818473250857 -2.030848107755138 -2.014911608717343 -1.968803139732239 
-0.0980005027479016 -0.1256221007896271 -0.01700959372407606 -0.06655899393141014 -0.02742629252482856 0.3292873602777163 -0.0621943294220694 
0.6864648114589652 -0.9552814794706629 -1.260251694518895 -1.138552081496064 -0.7919870529310598 -0.7812553491444839 -0.7141722466536636 
1.864755069935629 -1.424381378287137 -1.775454771515238 -1.775777828222897 -1.875857967016643 -1.580852286722763 -1.849720720725389 
1.21080943760044 -1.369801634337593 -1.3853150395349 -1.342981350785724 -0.9219146365389586 -0.9859635292655425 -0.8479118356059413 
0.008117577030838999 -0.001481634243663484 -0.001099072860150196 -0.001279662602528394 -0.002859107583237928 -0.002296871019979559 -0.004842024165325532 
0.0005152453986721984 -0.001014111484882874 -0.0005940162303599369 -0.001108838160928686 -0.001235962815322592 -0.0005920722885670081 -0.0005337870762538007 
1.060944443282411 -1.269718587256853 -1.085207682778375 -1.046650276189711 -1.149825879361142 -1.029145848483097 -1.167462698577389 
1.415015191796432 -1.300019276572985 -1.156894743799866 -1.168605283753553 -1.264748816586317 -1.177377875661981 -1.29435814553926 
0.6889473123029514 -0.8194266493318304 -1.265117049189624 -0.8754065535327642 -1.307831595764289 -0.5486434262313787 -1.24716142690026 
0.03799203927526883 -0.001719307944322796 -0.0004568836873643648 -0.01103560658232238 -0.002908950203790198 -0.01576307141049849 -0.002290096333028188 
0.8371990970105461 -0.8495305106113222 -1.312812242113272 -0.9457033732167374 -1.34488097069263 -0.6235805584269501 -1.288315632028214 
0.7312303493880344 -1.125545091696958 -0.7369845180938497 -1.232130773165489 -0.9739579899913167 -0.68071999667757 -0.6764083956295641 
0.7312303493880344 -1.125545091696958 -0.7369845180938497 -1.232130773165489 -0.9739579899913167 -0.68071999667757 -0.6764083956295641 
0.007366346977066143 -0.000386688423285809 -0.0009592329047570291 -0.001264960164215119 -0.003721981639890799 -0.003614622799970118 -0.005331304841473288 
0.001655038642868285 -0.0007391717171697454 -0.0001442209027771723 -0.0007860952899367503 -0.000819596106348568 -0.0006361311588494541 -0.0005799510637230486 
0.35231945554634 -0.7807256390657458 -0.6615670089365686 -0.7880213829569044 -0.215035814753546 -0.4596580742796917 -0.560251887911176 
0.7714401825452529 -1.35705575231524 -1.361426694936913 -1.043997914237258 -1.144261820840803 -0.9834578045212089 -0.6300306482992918 
1.526595400874913 -1.683742352956986 -2.200868678464673 -1.41235113173032 -1.794230317890901 -1.354720068460243 -1.847464404629234 
1.526595400874913 -1.683742352956986 -2.200868678464673 -1.41235113173032 -1.794230317890901 -1.354720068460243 -1.847464404629234 
0.6311612473360594 -0.9382508833836758 -2.229118814855528 -0.8539259872740955 -1.614288483814742 -0.4306462317965983 -1.474972565574445 
1.27529477008919 -1.110697149080458 -0.9286539677491642 -1.112042422680797 -0.7047814125170777 -0.9246846596554033 -1.250839510973102 
0.6311612473360594 -0.9382508833836758 -2.229118814855528 -0.8539259872740955 -1.614288483814742 -0.4306462317965983 -1.474972565574445 
1.888002398804728 -1.948043140186895 -2.037347113008056 -1.740536195450407 -2.331801010979376 -2.141526397611174 -2.002936630439215 
-0.2785478598165859 -1.076576332402402 -1.28729266905285 -0.8465767146228897 -0.1716085992196872 -1.06330575396142 -0.9247336460499824 
1.447336890299094 -1.716466014486984 -1.770835719074027 -1.653884230038079 -1.104584866223361 -1.298277301282578 -1.496016334003764 
0.1175252027470698 -1.000587425448733 -1.318522212015205 -0.3914709406563682 -0.09208206544731054 0.1710891268921867 -0.7531583060567669 
0.03635963957910655 -0.001699611702964652 -0.0005179858434829271 -0.03432614661672551 -0.003523254742102946 -0.003810732882253025 -0.001993474177337346 
1.104314095002548 -0.9496631836095287 -2.015667629132185 -1.554754189841919 -1.268581265934078 -1.21727027856612 -1.458681947858019 
0.419938817806272 -1.089323894992391 -0.7391023210075416 -0.9779649975293065 -0.7198644961152344 -1.037665785666539 -0.9187616081114918 
-0.348742545784837 -1.346428631218523 -1.297723330370131 0.4949869854990804 -1.337875229395032 0.5381218664622004 -1.230643548409262 
-0.05645794473087051 -0.3900505993419278 -0.8527874967549659 -0.2212760057623305 -0.9270582430436715 -0.3550961957985628 -0.7944379238978372 
1.103939252965859 -0.7245320921774168 -0.7061129284480764 -0.9724357951150671 -1.119752840819672 -1.393988906652921 -1.134444531144451 
0.05676598425758206 -0.009923003266147512 -0.001258236538470988 -0.0270040658969475 -0.009926458817680884 -0.004366246113343092 -0.00271392281303542 
-0.1801389945937927 0.293583139915283 -0.008355750926660729 -0.05424657327488651 -0.03353663162646554 -0.0350444965327618 -0.00879871945989001 
0.006368700895137976 -0.005818121916847213 -0.0002402982786701283 -0.003035585718186533 -0.002941203242383969 -0.001995866465517244 -0.001331269938459088 
0.3417271243681991 -0.7321267835742453 -1.249427514958708 -0.5653714064270166 -0.6415041943072715 -0.3732781721121843 -0.8108527265953276 
0.5356022104371698 -0.6843532676226797 -1.573757909917181 -0.5193656584228867 -1.007656546626974 -0.3438547881502274 -1.255618568915559 
1.071537491326773 -1.338164024355809 -1.003994856537879 -0.4431368372918172 -0.4939604694383237 -1.109927908289222 -0.554158029827782 
0.334338789275106 -0.04075301460463094 -0.6404351920951368 -0.3439660827860552 -0.1300315346264948 -0.00833062215716909 0.4415692650246981 
1.112836279935929 -1.352397450476988 -1.051109449912007 -0.5476380686027719 -0.6138917688799002 -1.105384723782586 -0.6744365897121334 
1.106515434433174 -0.9298669419072551 -1.327951640149864 -2.052815007411704 -1.711021638181924 -2.386493333802391 -2.528482908173205 
0.008439141417798581 -0.001838107983327553 -0.001661821129502612 -0.003250721606157488 -0.005546325197373599 -0.0004703654309767369 -0.005662367433872024 
0.0008948665086860486 -0.001596450576325773 -0.0004330508696388632 -0.001453642251130154 -0.0007898138640988045 -0.0005601358602665649 -0.0004676011686214223 
0.2655629003573712 -0.2016357280583908 -0.2725236589622146 -0.2746626432104252 -0.2405490475214812 -0.2411172372129488 -0.2330011650358743 
1.493860024154995 -1.729994977735394 -1.779505308351059 -1.345706267532432 -1.666942713443514 -1.557557749909387 -1.766108246950259 
0.291482805363635 -0.2950747104000898 -0.3784552183788641 -0.2652014220515908 -0.3033434523786749 -0.2938782583264907 -0.2885953046283933 
2.744582830741937 -2.506564349645434 -2.912480850928927 -2.154753462660433 -2.77889012903182 -2.216142861693772 -2.818609942298538 
0.4172451952813016 -0.425525179882837 -0.1765822838549921 -0.2325379078090452 -0.2267239039303705 -0.2853675683892482 -0.237869070127169 
-0.1090585590282264 -0.2069869502927546 -0.02961968061679045 -0.09233211858516931 -0.0250181237310331 0.386091261530753 -0.0080943975356715 
1.762130393961934 -1.273033469390245 -2.469657478382281 -2.241742234770296 -2.572170259054389 -1.929916619514826 -2.401675902332904 
0.2165851508838895 -0.2904121165116356 -0.1394987159425345 -0.1867953077720108 -0.2612412413241599 -0.1639113909998347 -0.1722743514967666 
1.95901293243236 -2.073918358798954 -1.994277041317271 -1.964366179944422 -1.359131660998043 -2.244277511971994 -1.844318345560262 
0.1775381317615233 -0.1419654403902045 -0.158089929499357 -0.1637566102074737 -0.2853815782132115 -0.1743315912030322 -0.1930706676196857 
2.003621662675092 -1.786635735070972 -1.729197467848507 -1.777124830977793 -1.378361311116871 -1.592996543888713 -1.749229717748366 
0.02365298135569211 -0.005213139521883764 -0.0409007249668514 -0.005596741717796195 -0.03208928605274504 -0.008948791305321951 -0.03547015491624968 
0.01606780681771094 -0.006551185468911752 -0.00292372392452523 -0.005396982416908055 -0.003039496952594218 -0.009344414199268982 -0.006402681462917074 
-0.1104300227084967 0.04518666194437756 0.3114582603008205 -0.09028760675372749 -0.2076039844535265 -0.1716223512200807 -0.1255040819277617 
2.171067509561987 -1.849247979461652 -2.447943423797497 -1.999146758537235 -2.124600693541892 -1.978164541029675 -2.056980125124812 
0.4997153875374618 -0.2878826794353202 -0.4558850236736247 -0.2955314638594622 -0.5559576741393263 -0.2916139125052417 -0.3971708379859148 
1.371277184413334 -0.9489331994829778 -1.012345600775197 -0.9075170440958921 -1.141001450391066 -1.108689919076114 -1.00719764056858 
0.04665589390458659 -0.05511371256519092 -0.07455530544310623 -0.05441868422201461 -0.04620427267021054 -0.05676962005381788 -0.0594729166567213 
2.294981190423503 -2.228122761983115 -1.811685410362542 -2.07935480790008 -1.961793424359067 -2.307031840421393 -1.944978576381227 
0.04049141666039126 -0.05060435238040194 -0.03021057942958668 -0.04765112943718982 -0.03544702897338422 -0.03008940710254197 -0.04421819295832777 
0.008300653270010847 -0.00531178235066588 -0.003243090296646591 -0.009018325497973653 -0.004913948278018392 -0.003919985521153413 -0.006384522801941028 
1.652110909733696 -1.499638935179289 -1.943869282187349 -1.71274158330521 -2.029159334405263 -1.402160338703976 -1.963736918616104 
0.4993568048785831 -0.4395709975749792 -0.1821035425663759 -0.3813321968331231 -0.4881657879512118 -0.5579365174033367 -0.3083815008413711 
1.327878278502674 -1.071904497024032 -0.5639569081498573 -1.249941959630237 -0.9794185862695067 -1.661061469507325 -0.9155200418560008 
0.730551250680278 -0.3359313192608018 -0.3586536951936435 -0.3883835458906199 -0.5201860806796091 -0.4505598844583459 -0.4450311219322327 
0.6247018796183481 -0.4764515028190448 -0.118728630132102 -0.3056906900808342 -0.5441922117509133 -0.2484401442603169 0.136821251158437 
1.722800447456636 -1.357427409059427 -1.127439682452163 -1.173903136681538 -0.8933675047587889 -1.092206738465078 -1.308847385400215 
2.196902171486058 -2.305759543954891 -2.45858136241169 -2.257296902105217 -1.94614087092426 -2.138771213128287 -2.095061302700459 
0.02128362156167345 -0.006535264135959833 -0.002333904780191073 -0.0081469089336556 -0.005350860607027792 -0.004845752590281226 -0.005742493890684664 
0.06417814074912759 -0.02096070118580841 -0.01893690660778879 -0.007679835951704504 -0.01327743419490802 -0.02131500761747707 -0.009592140955344117 
0.00291720625086444 -0.001061009145915901 -0.0002472345027329893 -0.001261389016453259 -0.001953880287760548 -0.002289373408749756 -0.001092905279642739 
0.2194310901595857 -0.1480516063904554 -0.1309344267747572 -0.08798071247486745 -0.3504809235529417 -0.07065653648258585 -0.1626628985131978 
-0.6587753024155922 -1.037066697321999 -0.195413683784754 0.3514470037007879 -0.3893559244887304 1.126060566619862 -0.2033177972616506 
0.4787882200322317 -1.254431281260041 -0.7180329421278504 -1.311304884019808 -0.7483436036429193 -0.564988110462425 -0.6640201847027604 
0.905771376680224 -1.440158850409813 -0.8459370203594833 -1.415487822564736 -0.9895530955895963 -0.6843912501430077 -0.9087385226670649 
0.04953941198754751 -0.000753852276255697 -0.0008055158177775448 -0.0027460792124983 -0.001592407354240118 -0.01782501523116484 -0.001776468645470656 
0.008331917060622104 -0.002195524989797902 -0.001227572158701887 -0.00128123234612181 -0.002214822511918787 -0.0009738425778524763 -0.003614367725792064 
0.04861881880680221 -0.8468674588816625 -2.017971743482395 -0.8227382362901453 -0.9718334683666887 -0.9198961517568468 0.02346287730362415 
0.2597215236689319 -0.8765576383758045 -2.126366502666142 -0.842915279657354 -1.084343129094586 -0.9492797168506281 -0.311344986670455 
1.264852330280055 -0.8732630493328674 -0.992631560782983 -1.160607391091949 -1.193442184139631 -1.253953806395834 -1.114226919503688 
1.264852330280055 -0.8732630493328674 -0.992631560782983 -1.160607391091949 -1.193442184139631 -1.253953806395834 -1.114226919503688 
0.951130762403829 -1.214292693709921 -0.9216246267182958 -0.9919435653681801 -0.9122163248803977 -1.078866791404393 -0.9306503486205957 
0.951130762403829 -1.214292693709921 -0.9216246267182958 -0.9919435653681801 -0.9122163248803977 -1.078866791404393 -0.9306503486205957 
2.363011275364502 -1.652263733872348 -1.499082898394211 -1.814189367566724 -1.589622959583103 -1.786223445551137 -1.453490348043609 
0.0002516603316856142 -0.0004218974915254193 -0.001236452560952102 -0.001123019531055513 -0.001392948007957446 -0.0008731166378081032 -0.002424530497198802 
2.363011275364502 -1.652263733872348 -1.499082898394211 -1.814189367566724 -1.589622959583103 -1.786223445551137 -1.453490348043609 
2.343580625559127 -2.736018457268365 -2.545944507570046 -1.872082708934931 -2.264338041709489 -2.006580976303692 -1.943112294141322 
-0.4489092423521904 -0.2337426838321271 -1.434979878451101 -0.6491812275318182 0.9175760848501118 0.2430792267359346 0.5015608115744341 
0.001880261377586215 -0.0005158873185842388 -0.0003263048960631525 -0.001277581808134534 -0.002861436140033537 -0.001456209145439867 -0.002694144403669684 
2.519343537876851 -2.311919157016468 -2.740416926727938 -2.470101538196455 -2.777933439691699 -2.936990916743941 -2.300668168858675 
0.0007220341422431756 -0.0005859259818025882 -0.0008891412527698987 -0.001006285072631481 -0.001542050063373946 -0.001007470123363509 -0.00153619553846911 
0.0002963666754565958 -0.0002957813624788544 -0.0002586479130521684 -0.0003690399052267223 -0.00056834162127503 -0.0003946808409053966 -0.0005847853138772163 
2.707921505684415 -2.018530315536596 -1.962827277854313 -2.311071434816585 -2.432242659133069 -2.344136272838045 -2.276297812388726 
0.7524819671269716 -0.5127609732845865 -0.4405832252288212 -0.3425753257512254 -1.023083032292307 -0.2562102135407412 -0.560810628854513 
-0.2216649740934338 -1.907469853088624 -0.7206208555209951 -1.485815319059931 -1.110321683520809 1.485455302744422 -0.7445511630563095 
0.07454748073121181 -0.04953579202761243 -0.03306717291394954 -0.05408715422854384 -0.0961750981311901 -0.0588419005553116 -0.06135834057515966 
1.928424597927753 -1.456963933689792 -1.404662288613496 -1.634214409562817 -1.238945903042985 -1.839730924215811 -1.559727659965721 
0.01132553199912501 -0.0003105441948184434 -0.0003190057118505259 -0.0005904656827172069 -0.0007983813853377755 -0.008872350584011767 -0.0007132910435282602 
0.003920395261279439 -0.003032831697617903 -0.000372622097307776 -0.001022539697076504 -0.007565068887275716 -0.00139482454036777 -0.003021242148147674 
0.05725757659217855 -0.07256246606276416 -0.05166007422194473 -0.06141164355301881 -0.08237013864186793 -0.06364511876187059 -0.07002313780077027 
1.506828255333629 -1.477392567333647 -1.544831954794341 -1.425046019817138 -1.605768165424975 -1.432388951913164 -1.57102751590798 
-0.2447805839642394 0.4280949206110785 -0.04210773209980398 -0.08470063668766295 -0.04811751138949802 -0.1402713712339325 -0.04482700191263934 
0.6539658108326939 -0.3196281553964534 -0.2335995032685551 -0.5652964753833805 -0.3772365376298402 -0.1127624243515161 0.07610824291333594 
1.601262722694824 -1.018022538107542 -1.427278398190027 -1.293381154945636 -1.453693954586303 -1.694989487892006 -1.419380655577387 
0.2453952704116754 -0.5870935203932682 -0.5708927994727561 0.2168069185401912 -0.7527470540714455 -0.4727381636733026 -0.7207623521878124 
0.1691341367297247 -0.113642463304737 -0.1035495372501561 -0.08562745503018804 -0.2054395671601786 -0.08464230786053485 -0.1129097963933531 
0.5189261001445044 0.3893496104592977 -0.1311572377436533 -0.5565755462131604 -0.2561054349039465 -0.3354015295503882 -0.1425092041831695 
0.0005852389535948319 -0.0007882677234724526 -0.0001500020442430277 -0.0005661568951291792 -0.000495444354279441 -0.0005480343262002586 -0.0004362699426431831 
0.6585062029966781 -0.51864595999338 -0.3850619707814204 -0.7148793023588217 -0.6296813687995235 -0.5570818610204916 -0.4833835380840021 
0.2471409031232663 -0.572668986231431 -0.43013033592704 -0.1186231295176537 -1.011815820968821 0.1909278453446167 -0.5510376686812424 
0.006100076264267958 -0.0001659580735232067 -0.0009176287637635196 -0.002569147012223472 -0.0005918774950917839 -0.002638935614437914 -0.001422736180143359 
0.0002141624465310287 -0.0005810391518792937 -5.19212280032809e-05 -0.0003602718960907751 -0.0002273644753130165 -0.0004013817657516299 -0.0002119611819198547 
1.988692612311532 -1.317153210963047 -1.339687175593674 -1.61906752482023 -1.376372041609688 -1.393676449476285 -1.276127258962798 
1.170598765133403 -1.061505530789715 -1.683343565640175 -0.9906686220845455 -1.265227816089448 -0.5142736332630797 -0.9194086662171218 
1.744659863014947 -1.900763816748647 -1.155167075870593 -1.164472795055381 -1.174682153655871 -1.250594464127751 -1.346905368740336 
1.592422696697048 -1.865599645410857 -0.8647729172177852 -1.108486071532876 -0.8369749335801875 -1.188781668571994 -0.9650267604012763 
0.3885283373851811 -0.1877738748245208 -1.587571346036418 -1.029734862653909 -1.527440326562164 -1.68009034346559 -1.180690284546015 
0.007127164699647238 -0.009624707033012391 -0.000269833364114957 -0.004219099523665869 -0.002187285860239393 -0.0002800180233179247 -0.001195744646389651 
0.1641280970631129 -0.08897114764047584 -1.504637531515983 -0.8444139775375799 -1.369512998409234 -1.629708199354567 -1.012513403659224 
-0.06381071805084655 0.1599505558217518 -0.003725316886654801 -0.08269055785907024 -0.01468012479855851 -0.02805010167325808 -0.008875329969699747 
-0.06381071805084655 0.1599505558217518 -0.003725316886654801 -0.08269055785907024 -0.01468012479855851 -0.02805010167325808 -0.008875329969699747 
-0.04406278193502242 -0.1158512301391904 0.285654626879893 -0.004718948163985807 -0.09001703896237102 -0.0009271167221406141 -0.02571484400295128 
-0.5258523792957556 0.9761508076461839 0.3270680207851122 0.01377522991278862 -0.1029589569025436 -1.463146479307336 -0.9320188365043766 
-0.04406278193502242 -0.1158512301391904 0.285654626879893 -0.004718948163985807 -0.09001703896237102 -0.0009271167221406141 -0.02571484400295128 
0.004024238138197982 -6.921611136717985e-05 -0.01160191565999044 -9.623501676048547e-05 -0.003640575594496396 -9.031719423157818e-05 -0.009160101450787907 
0.7190646986803181 -0.7745602279260996 -0.7755820105130286 -0.3689078693845199 -0.6300442109476559 -0.3442311552301385 -0.6630064730050444 
0.01618990698703823 0.6431482305187822 -0.7195023074313217 -0.04832895182595442 -0.7127995928842701 -1.039365451114768 -0.5904518060674729 
-0.4427566536543338 -0.1262838760040205 -0.1249494377942194 -0.1632370996375815 -0.1763343464428225 0.6880784378145006 -0.1717116075570007 
0.07930861265969055 -0.07152278821180406 -0.08111012682229639 -0.04765662201800085 -0.13757956052254 -0.05648551652436741 -0.08990610516364422 
-0.08237160186442502 0.3965584665871712 -0.09502844351655594 0.09648396861413774 -0.1439074219402945 -0.4435762502824829 -0.06614491791169197 
0.001067066772799086 -0.0007944182738320743 -0.0001556622342863794 -0.001087589000354888 -0.0005542181646617641 -0.0004918648829286568 -0.0004708588602429937 
2.324088322203665 -0.8623112408623763 -1.024371136238641 -0.7571605993669832 -0.4826135975103463 -1.393034501008718 -0.8185353050692658 
1.199061327262644 -1.82679217377249 -0.6736379634526436 -1.471117519140644 -0.8755884855779937 -0.9773042651682594 -1.468033925975691 
0.0007870181274130794 -0.0001081810326615346 -0.0007365691507675769 -0.003254329021995551 -0.001068982197872089 -0.0009674649071513324 -0.0005604511612942768 
0.002314817389085714 -0.009208819731993693 -0.001174383951217034 -0.003190205433441736 -0.002678268385002256 -0.001426551471418171 -0.001379024159854808 
0.6777556564980292 -0.4951203627083582 -0.4287638727803866 -0.3310635657645511 -0.7726376937814933 -0.2495083138267879 -0.4937158043808138 
0.6347846280694891 -0.724537674311621 -1.930605821541544 -0.5989443583585341 -0.6055471555479582 -0.615996600508906 -1.301695223497597 
0.6836685146187733 -0.8813066574536755 -0.7035721886010072 -0.9834001089600826 -0.7719885735131853 -0.1727616676113027 -0.6435422497687117 
0.9572757558946708 -1.01435659749015 -0.7920542322687175 -1.09583905126991 -1.00821666894754 -0.3350704611229241 -0.768005993974552 
0.006767411899964638 -0.0005709612559785351 -0.0008058156697475397 -0.002014271136587333 -0.001701340494147606 -0.00566766581160286 -0.001775178790977267 
0.003356436780196872 -0.006081213494587447 -0.001723614914959449 -0.001895217377540714 -0.002103519015833998 -0.002198574059640639 -0.002801713360640693 
0.002712911936265836 -0.002511358524358257 -0.0007143098419218945 -0.002122539510724201 -0.00598649361722158 -0.004062711719727655 -0.004370066848142787 
0.001147919282102922 -0.001236060839747035 -0.0004250278007752928 -0.000941495197369484 -0.001441338386974715 -0.0006592083740969747 -0.001318083073435307 
0.003619732166558135 -0.0001290966334325357 -6.438350447584179e-05 -0.0002344906376121266 -0.0002161537997663543 -0.008782345082595575 -0.0004015940625784705 
0.0001624284616724003 -0.0003908730500028528 -0.0005837395886866677 -0.0006273688634623092 -0.001104959099194997 -0.0005388121281953112 -0.0008507729131897327 
0.0228441720387909 -0.006237835840398507 -0.0008782636510678386 -0.008904739783807316 -0.0006173813312066044 -0.009292536791118145 -0.0006039317373832108 
0.5381960261783572 -0.1474281106252032 -0.0852988126120332 -0.2382787388848491 -0.06431120777001791 -0.2366087139241715 -0.07959976364639693 
2.979350970351128 -2.350461496479958 -1.575149072596559 -2.164606224631284 -1.851485308492114 -2.280575838551684 -1.583152638598492 
0.08054596318121934 -0.09456684549469865 -0.04302712433253615 -0.1050939222519215 -0.07787986774027618 -0.07293181924854393 -0.04861492781405406 
2.225521792210081 -1.934403402096063 -1.605928904097601 -1.862484379028878 -1.724809637960336 -1.902190036969224 -1.648540000805913 
0.0009591152901238262 -0.001047388627276927 -0.0007406878610935172 -0.001352007601099781 -0.001838324678770351 -0.002569125902058815 -0.002281834116474812 
0.001379177491808957 -0.001384570296093398 -0.0007035312415198625 -0.001773881688892442 -0.0007085087667736832 -0.002134136286715149 -0.001102497828726301 
0.001379177491808957 -0.001384570296093398 -0.0007035312415198625 -0.001773881688892442 -0.0007085087667736832 -0.002134136286715149 -0.001102497828726301 
0.2748284386117186 -0.2360246510641101 -0.2642794196051538 -0.2576197002468734 -0.3851431981004422 -0.2743829913117151 0.1160993733514483 
0.001471284868227281 -0.001465195372419293 -0.0003219829493336375 -0.001105095461134342 -0.0004258646344792311 -0.001466252087624105 -0.001094136325609206 
0.0004050020567000145 -0.0002726947470234663 -0.0006305538096509397 -0.0006017368146201239 -0.0008762649448575494 -0.0005960012589186926 -0.0009253676735294437 
0.03276551927970393 -0.00310580215730416 -0.00182934440353058 -0.01830673706732877 -0.01067796937490504 -0.0253115899754116 -0.007158129142541003 
0.1926739198575042 -0.1728531363735057 -0.1023987301479811 -0.1256716109373514 -0.3029934833751683 -0.0925553940087899 -0.1358073327940353 
-0.3012896951116586 0.6234623006456831 -0.174330622337842 0.8439644201286868 -0.4406687235342701 -0.7492216335027881 -0.2091819789941 
-0.3691676989642583 -0.3926801289775792 0.7024405744198113 0.9361234647373364 0.4478032238169436 -0.6193449159778034 -1.018947505619312 
0.008262597676589432 -0.008472830312295076 -0.002317267913681388 -0.01470505045809294 -0.008147757924608002 -0.00989601343398973 -0.006109869363107587 
0.02013974574734856 -0.01342364480756695 -0.01971524443136424 -0.01492121045093327 -0.02723014498446119 -0.006579271424420464 -0.01191198614905787 
0.007904113937088869 -0.0002030558080612951 -0.0006739449367938071 -0.0004809904214777873 -0.007837128256177489 -0.0005132324990680677 -0.002040335174135607 
-2.77948024533109 -0.4602588168249152 -0.01828264946646468 -0.3606274707026024 1.919411745060585 -0.2769111231406826 0.661749087511402 
-0.2940602582680514 -0.8023779978369038 -0.1430707424286914 -0.005726952300627186 2.148891586201897 -0.05122795427060571 0.5989877675766727 
0.003984867609567609 -0.0004609269303643174 -3.331950098382493e-05 -0.0006704415934110043 -0.01589460605271021 -0.002176163470077907 -0.0017797197011747 
0.0001030542759954513 -0.0001390608197515374 -0.0002941330338801559 -0.0001826721646555886 -0.0001989176870034961 -0.0001779046679313231 -0.0001637201901013802 
0.0740334707359762 -0.000665043536509088 -0.001229429535619497 -0.04176656323769251 -0.002015306463206164 -0.01931036830645807 -0.0005263658503232979 
-0.02477202199143396 -0.2165037377246797 -0.002339577810898527 0.7214966677129893 -0.03255831068134812 -0.4571236336563154 -0.02425195196155654 
0.00781796465861965 -0.002347345646964171 -0.0003993317021911596 -0.05847530270840993 -0.005238263002906959 -0.009110923323376579 -0.001299228839237254 
-0.1482728063057099 -0.4497158601145809 -0.01228607810477653 -0.1235000100932656 -0.06073584717067149 0.6636416878514377 -0.01543664765842388 
-0.316963237594038 -0.4837167322177684 -0.01264466049607359 -0.3018794385733418 -0.07541389378106572 1.06273006914274 -0.01464799463259954 
-0.685185990909032 -0.6491951507578121 -0.3066802249459348 0.3051287588841486 0.4983795541519034 1.069583832422046 -0.1540535628503767 
-0.234102984425745 -0.1726370912661427 -0.6426469323266367 -0.07158548578700466 0.3320806860100631 -0.04925502162962096 0.9779542265881643 
-0.2215909443986397 -0.04189584976151362 -0.3684729653647397 -0.01460040552987172 -0.381927468792195 -0.023119518219665 1.064270584596804 
0.1303880242471814 -0.001282563004808497 -0.04418243303302204 -0.000716296866657301 -0.1121488700262438 -0.0001354630463474139 -0.05472235305931275 
0.09361347410471862 -0.001200031840558712 -0.008235971303756626 -0.0006276975508410404 -0.09939301432368543 -7.46320176887581e-05 -0.02076183612298931 
-0.1881035275036785 -0.4504147846489647 -0.005829946743772484 -0.1393839393618689 -0.1085745279163686 0.8074351574135221 -0.0171466899979522 
-0.1881035275036785 -0.4504147846489647 -0.005829946743772484 -0.1393839393618689 -0.1085745279163686 0.8074351574135221 -0.0171466899979522 
-0.1574165462814475 -0.02555288852887762 -0.4842634591067435 -0.005456525675568854 -0.1560242211150511 -0.02240313033472672 0.8966817501332257 
-0.1574165462814475 -0.02555288852887762 -0.4842634591067435 -0.005456525675568854 -0.1560242211150511 -0.02240313033472672 0.8966817501332257 
0.06334490713897609 -0.0004903302799224024 -0.01903753475726416 -0.0005390625860071557 -0.01080931263749567 -0.00021499682362022 -0.07325461057345807 
-0.3000367638458459 -0.110395251280813 -0.2880975472084652 -0.1684160814321279 -0.3112782178970142 -0.07841461327647083 0.2074817126691764 
0.1607688250113186 -0.3399576633978066 -0.9096030000200912 -0.5714186114528333 -0.9516909279035632 -0.6300085211448169 0.01292991411002328 
0.3347829512113219 -0.2971174673629964 -0.3040735534899173 -0.3384467929048687 -0.3372038661126783 -0.391533480950923 -0.3073013836505525 
0.2774110196697694 -0.1907418539073834 -0.179646548526008 -0.2315913030722332 -0.204440844845959 -0.2236990629255061 -0.1914072870444305 
0.2237778459047984 -0.2666209558395166 -0.108040438329393 -0.2076316291408913 -0.1539240243047931 -0.2338557810856219 -0.1211976085322526 
0.9123894264149698 -0.7287374023896117 -0.4944320739256969 -0.7005330718664989 -0.5306461562927803 -0.7719383498394998 -0.5038104289369721 
0.1015052077476094 -0.2604325844145192 -0.3252287648595741 -0.06471129614678049 -0.2255767047616951 -0.4127299911985432 -0.237592469038104 
0.2059915999311702 -0.1853390996853658 -0.1193173163798762 -0.1736757144826993 -0.2157166216514561 -0.21902718992589 -0.1709345779923051 
0.5808032722746701 -0.6437492164464333 -0.8481690956798662 -0.7455246023567956 -0.7352316766539206 -0.6940181584307523 -0.6448048505835898 
0.3346186124649937 -0.3388774942471697 -0.1868956761119428 -0.3143095646359537 -0.2948155529149298 -0.436491877585618 -0.2709791247005596 
0.3671857859354889 -0.2660688688286776 -0.175071469720783 -0.2931218668795144 -0.2201685623318567 -0.3590075104542951 -0.1968663045989716 
0.3625094836728237 -0.1157650850599385 -0.1904479572180041 -0.1757695953094549 -0.2877883851337544 -0.2291197801254308 -0.3668499742119435 
0.005257397416194577 -0.002347034598606782 -0.008415270717394058 -0.003727111145603109 -0.0124053732674552 -0.007598652475419349 -0.0170399846523796 
0.3228941531049698 -0.1282040537245624 -0.1874070952829128 -0.1658133106080548 -0.2433514227201369 -0.2296977468095941 -0.2603611872768156 
2.711751496488497 -3.123305627262363 -2.140321352595639 -2.718054990395343 -2.240892322031264 -2.038390268565111 -1.462920562206062 
0.08123807662002085 -0.03914493335326012 -0.08663731185201944 -0.06296845747763002 -0.1638160436725593 -0.08392624956960998 -0.1461616558788578 
-0.09595927228931196 -0.07244649517425682 -0.01380465806331965 0.2857328682998875 -0.04733679311241759 -0.1796153823521967 -0.02616808255655314 
0.1685759002626316 -0.01243242419608996 -0.01729315814780803 -0.04092898229946376 -0.1621295425596188 -0.01376780086231373 -0.02037218772319199 
-0.1982986193594682 -1.675737773154464 -1.4980346279056 -0.4899575643356841 0.157228098347573 -1.423125498838883 -1.283882879885221 
0.02943689008826267 -0.008517046003376464 -0.0008515049097511031 -0.01939227717898976 -0.009673306707056439 -0.01851166600313921 -0.002317058971215815 
2.515024623637437 -1.778251131837547 -2.614968163714463 -2.146149623740484 -2.402943897702105 -2.485377010980204 -2.495223702926963 
-0.08187321756615724 -0.06530805270498252 -0.05393493168493608 0.2120107594708488 -0.1095884595571186 -0.1399303145082739 -0.0561887955201988 
0.3214949432999648 -0.5654796905271581 -0.3225626922878486 -0.1421914529840746 -0.5594960898770687 -0.08007923075720724 -0.3946716680547744 
2.915297710099563 -2.664696500483063 -1.890813270856475 -1.779727880086178 -2.257282869607198 -2.055437463894802 -1.766406187412049 
1.111967347249853 -0.08006687526676465 -0.01713604215220653 -0.137245261317099 -0.5815819466678639 -0.4791335243077328 -0.1031794135401027 
-0.6117101782487692 -0.5944548921927378 -1.674802978049115 -1.593244454461494 0.6276961225049227 -0.2792713649917835 -0.1628069608115579 
0.0772969531214291 -0.02344942614990645 -0.03457310261166806 -0.02463156718803149 -0.1491242685891054 -0.0252787188361112 -0.0885781593273578 
0.1728048894482685 -0.2431072386840727 -0.2130738142428385 -0.1319719278135751 -0.1763024186465555 -0.1796213604576547 -0.1471782876962276 
0.9302634302928035 -1.441672209233132 -0.9516229790371981 -1.220216779792321 0.08923286126747108 -1.659765470486145 -0.4554796366911018 
0.3569968642473679 -0.4501669327485691 -0.4731837931681823 -0.2819854602746298 -0.3696748123068305 -0.3145491911074992 -0.3616287055270032 
0.2669279578153939 -0.3538149744086881 -0.2592357554803988 -0.3415053378986921 -0.2733133125688375 -0.2442208225468527 -0.2650352520622707 
0.1252974350470779 0.1980884309438891 -0.04585134889983503 -0.05756874719996599 -0.2221525550279575 -0.1565004828926603 -0.02997844347824535 
0.1381789873378913 -0.2216353432418812 -0.1513098322888007 -0.1684076629144084 -0.1191553309437196 -0.1253727023439467 -0.1127754589989112 
0.1343589704350372 -0.1270953843653284 -0.1140403365663347 -0.1287726557218755 -0.1365468528365151 -0.1338047459929325 -0.1294890570997285 
0.04848972988342286 -0.0366895688495049 -0.02193685716723949 -0.02806606916840374 -0.06209647781260105 -0.03656488794720716 -0.04298705112872955 
0.1042508193139481 -0.06881323000787044 -0.03489007643613602 -0.03621400246393012 -0.02708587630920976 -0.06010603495686105 -0.03669525270499722 
0.03717423653758425 -0.004568532669607737 -0.002942470345095453 -0.05235180660549982 -0.01015477019538843 -0.01443757048213989 -0.00685142880926477 
0.003953171244422759 -0.003359142778149357 -0.0004326009520414686 -0.001414356121617546 -0.002574699841067692 -0.003065005161900968 -0.001355297497635711 
0.01671822704585058 -0.008529856141369904 -0.003380136307398971 -0.02038218638802909 -0.01337822996100336 -0.009156197957451111 -0.003787037981636072 
0.05401834029796336 -0.004109928886253775 -0.01436704177055956 -0.005060282880144402 -0.05644731631676276 -0.01056014256569571 -0.01837050293217183 
0.002272878824295888 -0.001092691599498515 -0.004958018480019527 -0.001214820366645543 -0.001909398654173833 -0.003598536816006935 -0.002902895548002302 
0.0106856926450439 -0.001455972816273245 -0.0009723768392082223 -0.00169451806326909 -0.0009647962482217452 -0.002964059655725105 -0.006019363415311093 
0.1547139939986688 -0.01699211814205077 -0.00754691441051642 -0.1088989913002175 -0.00762992750912274 -0.06665606438727881 -0.009665598831158837 
0.3695370143291367 -0.2103045899256666 -0.1626420548695367 -0.3499603429234978 -0.1496510895284275 -0.3163928533643967 -0.1536505719628609 
0.01237509635186878 -0.01071714885952812 -0.01091966194085122 -0.02025895234644162 -0.01484617336936407 -0.005361170945532854 -0.01954090169134499 
0.004079671138923551 -0.003623025943829812 -0.005018643759400533 -0.005696032027187831 -0.00637525118134946 -0.002452983517784176 -0.008656188770401382 
0.1024623456571928 -0.1025165483529776 -0.1423857247229005 -0.142750503719313 -0.1277876827640045 -0.0704921738378872 -0.1527321947859291 
0.2686258865173597 -0.07919569536662271 -0.2684805114177548 -0.4206507303547982 -0.0598729213786647 -0.2282513862850485 -0.4419990490038044 
1.270435554431696 -1.0116956408285 -1.023447639589739 -1.335023519321365 -1.202188755894539 -1.65675265715126 -1.193680018413818 
0.005654836579242418 -0.0005369621408204809 -0.001105689834302131 -0.005195906782855308 -0.001176903665926462 -0.00156810899995721 -0.001073097294025669 
0.00219083912502847 -0.003895569026367031 -0.001203074812947193 -0.002829887717919653 -0.001794075150072988 -0.001487389952590535 -0.001381064420374833 
0.265313583898957 -0.2525476314759431 -0.2838247723318468 -0.2116232756220155 -0.2603192845083157 -0.2317565805519813 -0.2829877370550428 
1.140957566256523 -1.170151611146756 -1.265726289156466 -1.019013166471955 -1.223389312400815 -1.040899798249963 -1.287385530916775 
0.1719108276829998 -0.1974497417313739 -0.1863785471311683 -0.1918009647495028 -0.1925384810047502 -0.1523074943476554 -0.2007558743353244 
0.8716450292660805 -0.761283749004208 -1.008246312189633 -1.041577244841329 -1.066587624626226 -0.9802069108316832 -1.035557273460148 
0.002003704081240909 -0.001205033799104461 -0.001136233888422804 -0.002557689231453651 -0.001594803867132617 -0.002961004658311597 -0.001173880863040292 
-0.2516631103177763 -0.06880330213919762 -0.02731503027341426 -0.06595754541739308 -0.1462025925201935 0.3802759174209907 -0.04757948337704739 
0.005846988303221676 -0.002070891549080139 -0.001621206496928565 -0.001985175914019309 -0.002370423446863057 -0.004435862002153454 -0.002510940086395886 
0.0005632485316834703 -8.848838442352365e-05 -0.0002087025773066101 -0.0004046577149407259 -0.001547230286536713 -0.000721014143992402 -0.0003786322857759099 
0.03558725517544346 -0.02404040215382352 -0.03869217455131167 -0.01703881536333734 -0.05457847029304788 -0.01985842592983038 -0.03445524990604845 
-0.2475188230841842 0.1364738603290143 -0.02899794480471151 0.3540726572468023 -0.05107250328531091 -0.1100262700213661 -0.03176452728693143 
0.003142857943426082 -0.0003844082654730507 -0.0001677735703280403 -0.00125049147043907 -0.0007468013985040518 -0.002509307700103422 -0.0004674160599914423 
0.01833477888113337 -0.05382307405228263 -0.1473331890133485 -0.2403278162305302 -0.1049038826139035 0.3756415814900038 -0.04329812822107586 
0.02672126874247449 -0.0003216158437156649 -0.0007352604438442484 -0.009209609791720641 -0.001014147023143138 -0.006102450720519209 -0.0007925943515443857 
0.009764060637535193 -0.008022559117602968 -0.0007281362325570543 -0.003175602049271154 -0.002623376353475324 -0.001120667502298413 -0.003432551401842176 
0.04645119697108879 -0.1091109550599802 -0.00517746809393559 -0.0556656128441269 -0.07956292339831057 0.3078838159107097 -0.01824468259508377 
0.03519134089663957 -0.05815512316837569 -0.03377953123685945 -0.03402653653258839 -0.04228504596255594 -0.03861799188705752 -0.05857749972118803 
0.1894690275378458 -0.09044183369059818 -0.06041116774281585 -0.0336704355929082 -0.02597502692998504 -0.126129929186632 -0.03892354156113565 
0.1406507393387116 -0.03433300595895315 -0.05053270042020696 -0.01150214025753815 -0.03138969578890483 -0.07409498195136971 -0.03590995572793206 
1.072996018041908 -0.1220427991749526 -0.456379309120565 -0.1351084977306682 -0.1119939030594812 -0.7074582219594736 -0.08050742363072881 
0.07239551551142935 -0.005800792972922095 -0.1786444730378699 -0.002109093294705224 -0.07620682172607419 -0.001617222571371748 -0.1498150692076367 
0.01918982652761134 -0.005158908703742871 -0.03009211007894127 -0.005854419951708672 -0.02199958569880906 -0.01336970223477713 -0.02872800258299744 
0.0008084381532305556 -0.0009792308809499738 -0.001407404936450166 -0.004180715939209618 -0.001694032628214764 -0.004406585835637371 -0.004634347487666538 
0.1438570266133163 -0.05098632541235704 -0.02134708222399629 -0.02941041699186137 -0.02213813534167682 -0.1208379571097063 -0.02730843540088591 
0.04860982949525922 -0.01938064215574254 -0.03261347591006255 -0.02574729735716448 -0.02631361923499732 -0.08997178427078649 -0.03189492696931719 
0.1674155538498034 -0.1640707051562814 -0.02115099983377696 -0.06761623679225842 -0.03379493981815664 -0.06464831950351624 -0.04777969140660359 
0.4836803405777249 -0.293466245719221 -0.03691057163934752 -0.1319469052465206 -0.06389992569456251 -0.2491522678166275 -0.05020948181908793 
0.6233586673669145 -0.06097226933245784 -0.01046867682348378 -0.1766046492962398 -0.06584024735192354 -0.1614225957539454 -0.03240104848624779 
-0.1406901900711516 -0.7743588027591689 -0.1020575557173999 -0.4463846493354767 -0.2192140429245037 1.032780501005269 -0.1041852986511681 
0.1694970113114251 -0.002461195093491493 -0.1063478262360548 -0.007080115932192251 -0.05364565718758565 -0.009205669333538339 -0.1728723825865787 
0.01638897182881269 -0.01580531302882645 -0.007205041114538925 -0.007417575129072473 -0.01095268738820717 -0.002925093241013741 -0.008271273309018589 
0.007071139668964378 -0.001756273586788084 -0.001684629813996473 -0.004279688985072192 -0.002082356586083864 -0.00226059678605496 -0.004690889427733051 
0.009271128862912687 -0.003656969093097508 -0.001429374368347411 -0.003031113591027494 -0.001653228750826896 -0.005796911672298458 -0.003567540565131078 
0.003266410683019241 -0.00365376729075945 -0.0009548045348559105 -0.001931348898524731 -0.002957806583264644 -0.001637062476801859 -0.001502237553108722 
0.001976528112171622 -0.0005255269900916606 -0.0005166027881770707 -0.001245864138772847 -0.002527238383349142 -0.001209616986063147 -0.001301508614440509 
0.005433696017421355 -0.001480111643294528 -0.0005269843804013071 -0.001025231877885942 -0.002262887666712309 -0.004729121580556736 -0.002820229148131915 
0.0002999875999446336 -0.0002968762646479464 -0.0001348095676402079 -0.000905047862215205 -0.0002525571791394573 -0.0008646615207561652 -0.0003649704878497502 
0.0002999875999446336 -0.0002968762646479464 -0.0001348095676402079 -0.000905047862215205 -0.0002525571791394573 -0.0008646615207561652 -0.0003649704878497502 
0.003633336682975915 -0.00101941890052014 -0.0001284568990829162 -0.004054491160180823 -0.000549553066937566 -0.001417488204003361 -0.0002326319138143963 
0.009038954405166095 -0.0002483768815021696 -0.0006064532829390107 -0.0003975598174973246 -0.01045157210020894 -0.0005012817735141092 -0.001261233132356403 
0.01248016242873742 -0.002087400075756373 -0.001892424440564554 -0.003644368638791707 -0.01287341886469667 -0.006069092114489491 -0.00272518341321394 
0.009451557439791021 -0.001571249408636903 -0.002976801845957532 -0.006369330565175866 -0.01211609823770239 -0.006293387654563548 -0.004880989506119288 
0.01961608271252498 -0.00396979333321845 -0.001090487769852977 -0.007037442590834658 -0.01334832042451522 -0.01391197047394353 -0.003900257477226162 
0.01169693277967327 -0.001405575170299524 -0.001527203364692896 -0.007264978409866949 -0.008508609441962283 -0.009886863586992862 -0.00787814146805163 
0.001573781152190845 -0.00080963142007006 -0.0003722543703238115 -0.001775686586782005 -0.001898585699740614 -0.00221385442538224 -0.00176623447716761 
0.002437191123572715 -0.001036381681321955 -0.001018903473446145 -0.006962032564503463 -0.003070536764814312 -0.002746656077716237 -0.001998536266076889 
0.009449991390455235 -0.001282666531751775 -0.002152749332166513 -0.001134277519217824 -0.01165705608003504 -0.001503965398426644 -0.003195299677278096 
0.000383884262051283 -0.001034089409865888 -0.00154646157241529 -0.00073572413660317 -0.001193089323827707 -0.001000349896420454 -0.00193464926085784 
0.001227741043754915 -0.0004871169634605976 -0.0006413469691403084 -0.001154636385582978 -0.001452424346227553 -0.001574091100120319 -0.001296545431514921 
0.003677764483842012 -0.001873099956590507 -0.003671404814702349 -0.006666030185718748 -0.00466019407605045 -0.004238508411180422 -0.004784847874122893 
-0.254259487846866 -0.2395245675730922 0.3297935098305285 -0.1546505182748257 -0.2136296915231614 0.4866590345285453 -0.1823642810266279 
0.0079111821628048 -0.005160865210368398 -0.003723356416136786 -0.01819908070416866 -0.005835731526482819 -0.03173857437741735 -0.003222039544186713 
0.006818720179132803 -0.01221441538522275 -0.005010713477764664 -0.01052653135000722 -0.008868636653115882 -0.007218269012913133 -0.008823857034242252 
0.09681498881841848 -0.03796936602774466 -0.08123322266708542 -0.03817024636544125 -0.1372983888422283 -0.07499065789902291 -0.1023038596310453 
0.1399933429485854 0.1568450168018156 -0.03380786000079682 -0.1695151553534171 -0.08383356530946492 -0.2745529688002795 -0.05679790050955568 
0.02048651528694919 -0.002345210759387835 -0.000923365651206225 -0.002215110263658666 -0.01942276663595389 -0.00138787884299632 -0.003632871945107851 
0.0571465791285069 -0.002211104960663693 -0.001637134692355594 -0.01714540327089277 -0.03307501876423664 -0.01015662365304605 -0.0082829569774349 
0.02383101380367832 -0.002251607005186301 -0.001118429062195542 -0.002451451100192565 -0.01481460461018911 -0.001238419910607399 -0.004928192956941363 
0.03049504813454683 -0.0008405050226942924 -0.0004963119146589384 -0.000596297736728343 -0.0266920656078552 -0.0003152535370699913 -0.002947884621144432 
0.04933738194026439 -0.0007784335486618621 -0.0008159929457955424 -0.003152437012919407 -0.03254282775925468 -0.006712205522428114 -0.007008343900012134 
0.008934175129090702 -0.001623523904448723 -0.000734296896112854 -0.001217518089675396 -0.002277297913390138 -0.0007809598313988845 -0.00323487519620798 
0.001563367339576443 -0.000262058301803016 -0.0002279108514806036 -0.0008117739264848785 -0.001740527914171525 -0.0007407718280266285 -0.0004729957392418059 
0.0223364530593461 -0.003757326756365126 -0.001604993762341985 -0.01589317518104246 -0.01587157404870601 -0.00950677131064448 -0.008243447780250546 
0.005299979561041098 -0.0001059440800595176 -0.000104202965407815 -0.008829275327494491 -0.0005458761396524683 -0.004506381292201733 -0.000376328795326345 
0.009148861856609311 -0.0001982231787862491 -0.0005464857872848665 -0.002814910809718005 -0.006555809789242012 -0.002083628603583562 -0.001949171723456156 
-0.4702047735635032 -0.6061510386520621 0.0348852233354018 0.5811603571288563 0.5303955571554884 0.2266632867858529 -0.3145518182347659 
0.06946945712942916 -0.006911930785579118 -0.005412956965575328 -0.008543196850228568 -0.01501051197863995 -0.02366860144980729 -0.01165158371735498 
0.02193084561392351 -0.01521114913442647 -0.003170915963517344 -0.006853877307106157 -0.01605492972941119 -0.002458303742378579 -0.008611985902621485 
-1.059349521876379 -0.2369027796724271 -0.2302278656308887 -0.1534808159632688 0.7257029876581215 -0.1291399347958246 -0.2777115436454164 
0.6282856893046984 -0.5405840610770418 -0.3096271191477831 -0.02925211522108391 0.7219664881793066 -0.5263693431090923 -0.2999959908866453 
0.07023857830972211 -0.002526083616475557 -0.0006399138522575427 -0.01964819863695254 -0.01047670836511497 -0.02393695758771882 -0.003480307303858518 
0.01016247837394671 -0.0004217929030140061 -0.001257017069110501 -0.006403828354374676 -0.01180645477320918 -0.002329824211462076 -0.002746735933280511 
0.02280756754463076 -0.004323055882817966 -0.004123578025733566 -0.002522028280905814 -0.02714630611588406 -0.001439834124740207 -0.003954236951363795 
0.09353117573087767 -0.003432713039226812 -0.001601961586703337 -0.07933280934255345 -0.02614090087568264 -0.02894157124917712 -0.007443558245751318 
0.08251693688705948 -0.004744100165869746 -0.006227350339488345 -0.03910358370265152 -0.01946469037853692 -0.01582917648692148 -0.0133535157040635 
0.06882074297914335 -0.03958744561287364 -0.008865838736038221 -0.0157163757953858 -0.03422369270034036 -0.005982975458907679 -0.01504665071201783 
0.004981053943491212 -0.004185381300991381 -0.0002402107501852661 -0.003154736476210175 -0.002939341805325906 -0.002055297578424485 -0.001322897420304969 
0.005759243715230594 -0.0003226590101618161 -0.002051458966210402 -0.009412423457694276 -0.007779231195979554 -0.0003263295314141322 -0.002041655246062502 
0.005802842535035304 -0.0001988972078668377 -0.0002825123451046232 -0.0001428634361398379 -0.004949981840652106 -6.249329607287845e-05 -0.0004131030495081148 
0.01221748569398123 -0.001234693853110113 -0.0001491980174340554 -0.006877562989060229 -0.0003111791425594656 -0.004925735960327153 -0.0006571735981664895 
0.5497107435730123 -0.07314159648314966 -0.01072436652459474 -0.4390253895799172 -0.04014709847020279 -0.1752200829446756 -0.03004435632471722 
0.4412311467952794 -0.3746770955010437 -0.06518519302460368 0.04271245350205893 -0.3089711867139653 -0.3040987660792562 -0.07845405995866349 
0.001845170191756731 -0.0001492121983880893 -0.0003784604833296771 -0.002870629044540133 -0.0008156598780858458 -0.0005637412153924159 -0.001218711978731773 
0.001274154810529659 -0.000557420096607998 -0.0002293742524589109 -0.0003528026064473912 -0.001533168483738054 -0.0003548940187737646 -0.0006699822805535989 
-0.4107152980282759 -0.01946073441651196 -0.003827883773099819 -0.07460249910441277 -0.006441252426418848 0.5891654239542243 -0.004257895097513009 
0.009512367371441593 -0.001372886006314938 -0.0001540325333024597 -0.00408166988490908 -0.00080351143920886 -0.0008456084961994484 -0.0005172829074103848 
0.04648047170407829 -0.001501728009742314 -0.03941151143171804 -0.004196257133467589 -0.01225727110703043 -0.0008998532756644073 -0.0426384006954475 
0.01333207885128792 -0.01491750141658503 -0.0005687494674761637 -0.004260835895256093 -0.005808024176904707 -0.0007512691334999181 -0.0015016907291021 
0.01118780465781091 -0.0102609578585448 -0.0005215238855390489 -0.003008940465049674 -0.004889705454806758 -0.0005251397319270928 -0.001296936216733827 
0.01118780465781091 -0.0102609578585448 -0.0005215238855390489 -0.003008940465049674 -0.004889705454806758 -0.0005251397319270928 -0.001296936216733827 
-0.142793291531902 0.4771413105604457 -0.005421494523285416 -0.07932820588629101 -0.05728736179607903 -0.1431792696554089 -0.01093061757262535 
-0.142793291531902 0.4771413105604457 -0.005421494523285416 -0.07932820588629101 -0.05728736179607903 -0.1431792696554089 -0.01093061757262535 
-0.142793291531902 0.4771413105604457 -0.005421494523285416 -0.07932820588629101 -0.05728736179607903 -0.1431792696554089 -0.01093061757262535 
-0.07032770193550836 -0.05922955514659944 0.328689792194943 -0.006411852912389473 -0.1007404844590907 -0.005192431038231962 -0.1123372984118128 
-0.09212545081026546 -0.02753926973241693 0.3050985604003361 -0.04631188499121024 -0.1077759030251517 -0.02515604049731794 -0.1221242056889981 
-0.2636778980492731 0.4219556561558455 0.3232939657057723 -0.04038384209606082 -0.1020136176986834 -0.1970039958462083 -0.1145964320414324 
0.006808142027044841 -0.000378862252218593 -0.02329924959719697 -0.0003059501750427623 -0.009717809390365284 -0.0001024958005436726 -0.01094431169544947 
0.006296983177216619 -0.006735144858562602 -0.01606749207045677 -0.00230842161230215 -0.01382344204621166 -0.00145263636999047 -0.01583184208646296 
0.007540545280492464 -0.006101870542787236 -0.003409557525675279 -0.007154260905452095 -0.004874137596405395 -0.002837218276757356 -0.008280512838017302 
0.002164835386277605 -0.002930181244108373 -0.001578716068207213 -0.002332275346567726 -0.002258577337021429 -0.0008740588782667357 -0.002064992543090801 
0.01019319843176115 -0.001650350073577217 -0.001199859876109218 -0.01879577647727699 -0.001122488893271025 -0.003172435305480012 -0.0008656039473876556 
0.02102292517645741 -0.004014832590715876 -0.004288657180332668 -0.002499440722313678 -0.009096436332887436 -0.001596806807286455 -0.00297361619394013 
0.007196069015487585 0.2236376096901539 0.02959334089316447 -0.2034424283842413 -0.2196113872983323 -0.225813683328531 -0.2051919920291903 
0.2025442543322214 -0.1414520642572546 -0.137176402240864 -0.1990459759464524 -0.200967644431831 -0.1437466362123256 -0.1516035807812681 
0.4882354553748138 -0.2710018291888263 -0.09237836084738336 0.08484534484007712 -0.2553471562164267 -0.6002875021130926 -0.1496974615139001 
0.01915265748541376 -0.002504702978947622 -0.001003719919084288 -0.01244070008571917 -0.006108308692720344 -0.007712263404771652 -0.004123674900441956 
0.06055937251996874 -0.00819434418856611 -0.005025914176455925 -0.05472631882408979 -0.02280430128411976 -0.01607978238690877 -0.01086637643337537 
0.02860249253497024 -0.008924686971301417 -0.005553278923743882 -0.01145457155084504 -0.0127968048222968 -0.004385067342401634 -0.008259959695251898 
0.02970674704755095 -0.02169992388826527 -0.009541506647207348 -0.01314714041800728 -0.01894766102024082 -0.003262672523445293 -0.009522014650319897 
0.08386083080126058 -0.01179493009355999 -0.01311086798205635 -0.04706314956152229 -0.02768913795521846 -0.01556671789871997 -0.01453845681289435 
0.05717645319089088 -0.04686965305793733 -0.01816933406673324 -0.01942628476154412 -0.04384847037994673 -0.01225897805102072 -0.01975090482944159 
0.04063032694832524 -0.002536966112176672 -0.00152265258692221 -0.04062323443578517 -0.01068944820406243 -0.00790730526287472 -0.004150953010036194 
0.05384216875659349 -0.003306937630318457 -0.004472951041995363 -0.02440980425151226 -0.01744525019498604 -0.005208382978470177 -0.002664439668440916 
0.01766837694518624 -0.00562677562877933 -0.00215110528988392 -0.003092808228786787 -0.01749382107012177 -0.0016854486506155 -0.004176724233285203 
0.002603233404105121 -0.003111446444577315 -0.001453260970682531 -0.001821854475889904 -0.001123798093315934 -0.003731787151901757 -0.0009790606260161856 
0.307831425434612 -0.2669025058448577 -0.5397200590690483 -0.2019073489817489 -0.5116788095501419 -0.2252870702274812 -0.03867559392762357 
0.01290020299491167 -0.01024012735230245 -0.004443594116173172 -0.01091751197994132 -0.003021822739031568 -0.0106791789169691 -0.01423305078009738 
0.006001534276173012 -0.006930931812493145 -0.006066844309899971 -0.01394197400513942 -0.003373870447459527 -0.005289721703831277 -0.005080867072087781 
0.193304367128064 -0.2704741947912809 -0.2147353480916898 -0.2449004416149569 -0.1948347032238414 -0.264526022740156 -0.1945941127172542 
0.3364396528188863 -0.4526705540745175 -0.2441409837371649 -0.458592235180279 -0.3350167574425018 -0.02692178654141962 -0.2396407971418667 
0.01684295661658108 -0.008103602464527172 -0.00615594795400371 -0.01726241612642734 -0.01438113522761113 -0.0196183551599281 -0.007797112174395715 
0.0532405873859039 -0.005462578075573325 -0.008193871515479205 -0.04771042890416716 -0.02556417096924609 -0.03757691231091074 -0.01676912163574617 
0.2210453586542116 -0.009928960500277631 -0.01032584352733219 -0.05620418248728876 -0.1249580093872828 -0.1015115910539043 -0.04406291247199558 
0.06015109381771722 -0.0008262058757607708 -0.001329287502060403 -0.008116964570014666 -0.009445683273203559 -0.007958348863714135 -0.003795549516635593 
0.00169561187887678 -0.001046537363265743 -0.001370117759210275 -0.002674944829420702 -0.003448470180412758 -0.000707226940086864 -0.0009513750932179394 
0.004163870721483011 -0.0005665696127844281 -0.00062884567690736 -0.001436917333928983 -0.00189945386321587 -0.0006864666339447626 -0.0005677543692840871 
0.007722194188797069 -0.007337414207315955 -0.004904626726203958 -0.01086236403387411 -0.007280356337381176 -0.006079432747281079 -0.008864897326761339 
0.02419815402074663 -0.002148385287419538 -0.003179452842167627 -0.01250100814866945 -0.007650678205529639 -0.006417517977362767 -0.009782947882401223 
0.01559261153332778 -0.006654488616400066 -0.002275170869175263 -0.006160943090828533 -0.005328826339575433 -0.00363784047129697 -0.00563543879830066 
0.005250848680033665 -0.004324922154878519 -0.0002418096830810731 -0.003184780537445784 -0.003024941674752341 -0.002060420533839011 -0.001335499445520319 
0.008920621065576307 -0.0003283088776374883 -0.002484902337894731 -0.002340580309979446 -0.00614072961288072 -0.001475861987990172 -0.009397974147859485 
0.00753547897111613 -0.001101586468353625 -0.0005172564213039918 -0.0008271107225033144 -0.0007308551416975465 -0.000601612435588145 -0.002972869426838842 
0.006395214704893684 -0.00496110332985723 -0.01518505201648141 -0.002638112306310207 -0.007463430088185848 -0.001731006202593357 -0.007275615113687299 
-0.1521924772028729 0.3623579545179974 0.3424251628316436 -0.4021205197878691 -0.3804659412703357 -0.1186158430190124 -0.3485375711688557 
0.006523781090609096 -0.008674209089319384 -0.004012330464753236 -0.004029139660168917 -0.002271382436063402 -0.008987132534786073 -0.002934622823989638 
0.006666608465204283 -0.0247918416981303 -0.002725615064068464 -0.005781731912003632 -0.0046777935809141 -0.003880823907923115 -0.003014519776546968 
0.2540721862887059 -0.1945603299994583 -0.1483345128407867 -0.1135958156791434 -0.3867183525040171 -0.09383064564339039 -0.1776563430201834 
-0.9497957306086287 0.1692765748323998 -0.2208583040281916 0.2875599282026376 -0.5007192481537163 0.7796464353273082 -0.2576655042458967 
0.008222214802322733 -0.005968511903823403 -0.004057016898431916 -0.01028919698688873 -0.007795863718542127 -0.005595566769277791 -0.006029962368687561 
0.0247014061917532 -0.01856041674147357 -0.009849219188394657 -0.02427729232425268 -0.02000922454946863 -0.008192063937229184 -0.009394767166146567 
0.004983092486236402 -0.01062982414078462 -0.006344839840120904 -0.005204159842581717 -0.0111115461557393 -0.004435902233670137 -0.007524724986524776 
0.005593149258636136 -0.009273603235077319 -0.003027217584218649 -0.01227618989302118 -0.009175612841657722 -0.006587375247883638 -0.007403259304721316 
0.1997534538245378 -0.1562787492885453 -0.9230101534314142 0.4272364387972982 0.1877034908073857 -0.5081078674107838 -0.01574924372534928 
0.06721337231700318 -0.04408935441225038 -0.008900413715684671 -0.06906386184186115 -0.02044699345256409 -0.0617578247949765 -0.01972924846424075 
0.05246133843878876 -0.06826072225745609 -0.03952205025742031 -0.04217948089564589 -0.04590902653176699 -0.02371365476421387 -0.04483881207448508 
0.1273920996887477 -0.01451344094041495 -0.08335064994041462 -0.0337463559771738 -0.158965140350645 -0.06584009136380983 -0.1572589171880544 
-1.134848126946348 -0.2277493970275137 -0.3158959017346315 -0.1725293106778686 0.7346341666898595 -0.1620322172488701 -0.3172271334890228 
-0.01465901653386151 -0.1526387939852081 -0.232900833698691 0.1556706016688812 0.7341566434477678 -0.1592627002410247 -0.3049110972009617 
0.009672456508706627 -0.0086834657376576 -0.001864232281722994 -0.01143073842855136 -0.01136539547958707 -0.01056124848375393 -0.005571354160512291 
0.06986799037682787 -0.1258197637902951 -0.01315483315450707 -0.1217913708883182 -0.06158666474392001 -0.09272085023168042 -0.03339530375157294 
-0.6558272077524299 -0.1084833995470541 -0.09860496257965953 0.08131973582255497 -0.08817041904128098 0.4868902847454989 -0.1295909978004419 
0.005776500638541578 -0.004461660596840938 -0.005009196778630047 -0.01022119720847325 -0.005497619768720584 -0.008086163879950868 -0.009966975908448644 
0.006898617924627243 -0.01447053642228845 -0.003404374844555109 -0.007758985263162426 -0.008596577723988487 -0.003586607037748088 -0.004307984622588665 
0.01255630115362954 -0.002713307033178518 -0.002210404554218205 -0.0076932346732515 -0.0247115558474513 -0.007315196514911775 -0.007270841531357198 
0.003073780357401389 -0.001368487782096511 -0.0002089840331022476 -0.003130126434490469 -0.001811703008481049 -0.003133280476683555 -0.0006588242561955684 
0.004606748092169653 -0.006217864525940095 -0.004117326424081807 -0.006089288864958398 -0.005725571225753806 -0.005583347810818469 -0.004218256398484481 
0.006132608350009003 -0.006836418968007911 -0.006258337973058731 -0.006495295127281835 -0.006761747677292699 -0.003585386190520392 -0.002967646778353998 
0.006157915213726113 -0.001165820960851023 -0.003346491061833547 -0.008347715518300141 -0.003554485660424787 -0.004046402051571316 -0.001443428361927591 
0.01852561833582484 -0.0003456268131890629 -0.0003382147860587004 -0.001112731113871745 -0.02031876835325189 -0.002715090734939093 -0.005167938698790926 
-0.2920704659681338 -0.106493750273878 -0.006644901100852181 0.5296698937770795 -0.01334732538411009 0.1494566849015549 -0.01295779625113993 
-0.6547840488263218 -0.4950251450117902 -0.07106471232910411 -0.2852889954284541 -0.06691365467823206 1.377881693117852 -0.0522489849442721 
0.131628697636943 -0.001509050283732193 -0.1228053900342112 -0.001165448434715912 -0.08302176080726886 -0.0004743796705022073 -0.1086386046787879 
0.09370733038328818 -0.01838394131374556 -0.05087538650427351 -0.007162994545190539 -0.03842684474062099 -0.006812050500046025 -0.01892751902664552 
-0.6145090987391676 -0.005054214714461841 -0.05599353383143318 -0.01826957707916068 0.7882071946261449 -0.008821233449450757 -0.04094352204880907 
-0.8851216823853818 -0.02185435294687519 -0.008143444775375392 -0.01137721001185853 0.9528998786846312 -0.003945099059104214 -0.009315420323189997 
0.006807722608192917 -0.008193006959406604 -0.006408781983391938 -0.01130730454422184 -0.004942741493181935 -0.008283523274503045 -0.006030604159728704 
0.004471180495445747 -0.005206394298858771 -0.00586193866135393 -0.004770066126681417 -0.007081871263321102 -0.005896430433217901 -0.01127246024543139 
0.001681703686974558 -0.002479250437349007 -0.001564320226817241 -0.002172323507302965 -0.001688522219236824 -0.0007737592044403751 -0.002833485306826645 
0.005787961094035119 -0.0006959521339086771 -0.001032105176857156 -0.008451664609027718 -0.001059359196086402 -0.003278906327656193 -0.00168888091137337 
0.005944303905397368 -0.01914922726379792 -0.001444563913990629 -0.004365564091140895 -0.007754559518250935 -0.0007117943157337902 -0.002692861574908984 
0.02927763358684164 -0.009526081061976189 -0.0001026884828374102 -0.008466563191263425 -0.001743148815625957 -0.000561865048215219 -0.0006661103429641986 
-0.1881313028058214 0.3022164283059714 -0.007337383705011232 -0.04834610837847819 -0.02955418332316365 -0.03088205260530876 -0.006345692142276331 
-0.1902755769992984 0.3068729718640116 -0.007290158123074117 -0.04709421294827177 -0.0286358646010657 -0.03065592320373594 -0.006140937629908059 
-0.1740677166698531 -0.01530744175578043 0.5522051909252458 -0.001684472373286788 -0.06508935379076249 -0.003925093909266797 -0.04983380235086362 
0.2925562358304373 -0.4703373162685537 -0.1942615026825686 -0.7491221673008365 -0.2618405680286612 0.00375066512120612 -0.6231198034229871 
-0.3033346033839593 0.4760813564624893 0.5447656320946866 -0.07371512602883136 -0.07222914164022474 -0.2665995872462181 -0.05727631793127901 
0.01090315157613285 -0.0003061413334105246 -0.02586098388385213 -0.0006473878692799131 -0.01249320164831582 -9.51787514289662e-05 -0.01401596580980099 
0.004514099525945993 -9.698756144378601e-05 -0.01234607952547018 -5.543084217259062e-05 -0.008663517499143812 -3.066237812543934e-05 -0.006235102165092966 
0.498989733533126 -0.495209512045008 -0.6493856950035444 -0.3170234642687514 -0.6342112457594347 -0.2382570645035886 -0.5051097627602401 
0.3001044628271566 -0.1624422285328683 -0.3696712863458144 -0.2546158610037874 -0.5694182752756018 -0.0376671202141447 -0.4219366024224126 
-0.04078010306384875 -0.01694573111847696 -0.02248357130977104 -0.01501683821664658 -0.06841062211846202 -0.02042064740390422 0.1575984825271136 
0.002582007528767884 -0.001058172260143366 -0.0002409586849084003 -0.002633767184314786 -0.0008191296266142291 -0.004728539627989217 -0.0004527999922272812 
0.005132769450098914 -0.002482375379250745 -0.0009721392671835636 -0.002537563512276809 -0.002854242412359446 -0.002908402000956386 -0.003211962479482381 
0.005132769450098914 -0.002482375379250745 -0.0009721392671835636 -0.002537563512276809 -0.002854242412359446 -0.002908402000956386 -0.003211962479482381 
0.0813733462185747 -0.008871072135803862 -0.01759485970064612 -0.04150973595374528 -0.05245507553715961 -0.03733541179175853 -0.03826828695834727 
0.05916447502170109 -0.008695089347902656 -0.007155872918100815 -0.01715585917675647 -0.03361341976998541 -0.0195725126283684 -0.02858150994376319 
0.004430108680679512 -0.0002872852479570575 -0.0004043120628273424 -0.001209915981569942 -0.002596958976084488 -0.001269459823079412 -0.002942006649930491 
0.000958584418601159 -0.002064631156583343 -0.0009906989940953246 -0.0006714192255114113 -0.001771725160851876 -0.0004471558476826398 -0.0008259840092905 
0.001642762808993911 -0.004300550655241112 -0.001200132532970424 -0.00166168875036811 -0.002271875964223229 -0.001067477087033491 -0.001147631659042634 
2.001086079601302 -1.020906439938789 -1.651876265544515 -1.597720238214156 -1.846768742989349 -1.47147321242902 -1.777864011253673 
0.0103517142779054 -0.01081080962854157 -0.001265246532742771 -0.01568462914096988 -0.001133191096978695 -0.006158119751584387 -0.001877972670653405 
1.990200061337869 -1.625997495358282 -1.199432847225374 -1.702299038646559 -1.688244405358074 -1.951893659917057 -1.412262066209825 
0.001829201846639483 -0.002669190386133756 -0.003458739388328072 -0.004333966122682809 -0.002904010732284871 -0.00171438997265742 -0.003720539883123357 
1.481022926322208 -1.150535037730816 -1.543099409133978 -1.466321643411331 -1.785073690291145 -1.503797135242391 -1.627812211872922 
0.08516233091659059 -0.03022669257199549 -0.01471896839428268 -0.05628310611261967 -0.06208340002536832 -0.03939302455370754 -0.04665659649061193 
0.003845937096859976 -0.001298848491743132 -0.0007827189380619841 -0.002781738733108017 -0.003909424650563651 -0.003134658292966159 -0.003299434276404735 
0.1185353638999827 -0.02005637151848986 -0.02690792783887566 -0.07656712702531408 -0.05205724906082838 -0.03316136456934147 -0.05888489375541571 
0.03973340352531583 -0.04902780989841633 -0.02922973166133243 -0.02171959805948469 -0.04010532273660051 -0.01396460472727415 -0.01981997956666697 
0.0297646397683099 -0.00721851253460463 -0.00178646033522893 -0.004778113445398127 -0.01790478456054947 -0.005120707498712556 -0.005094188128491908 
0.001648032372561936 -0.003344951034876483 -0.001192491561951397 -0.001687681280969233 -0.002763902615960544 -0.0005922625273474564 -0.002512961480728412 
0.06230734206981733 -0.002042061772068131 -0.001712989598062334 -0.01059633585981339 -0.005263563727297006 -0.004460814680334409 -0.008382220793743747 
0.007464172212609483 -0.02154744060102775 -0.1256768862512363 -0.02472549273654162 -0.1395266615583601 -0.0272864110889341 0.4382208749562473 
0.2672110258488953 -0.005733839015163971 -0.005232638419539882 -0.0503325152186167 -0.02365570095510873 -0.02615759218868482 -0.01894022814577537 
0.01218280727650117 -0.005798504971549987 -0.00265009504597282 -0.004272054969324217 -0.004158586319392459 -0.001897623618166925 -0.005304382614831094 
0.01800970698968335 -0.01277350150317792 -0.01108666732392519 -0.007804233327455216 -0.03773227830204808 -0.007986336647872051 -0.01615778119496 
0.3268959219216734 -0.1845801608792457 -0.008224292091788085 -0.07113528484302478 -0.03341103938960693 -0.1183215395643931 -0.01622635169701945 
0.07067384508251083 -0.01253990330507257 -0.005416355147361766 -0.05627907686070858 -0.03045434277470688 -0.01719592563005972 -0.01595218853115721 
0.007703869041850693 -0.0006206707576343492 -0.001054497650849025 -0.003783697377209857 -0.0007149659387548747 -0.000932528414966566 -0.0004266370393075789 
0.1198787399951417 -0.01409993857803508 -0.009327758944052526 -0.02264827504098238 -0.04942591401468027 -0.01833498715953916 -0.03030601977542175 
0.03233981505811196 -0.01783848880404557 -0.008224549845988116 -0.009331233687895972 -0.02009869184696935 -0.006105023182368909 -0.01198069418562504 
0.01461999321082007 -0.00611645862926722 -0.01237054338962918 -0.005107118869420079 -0.02681267425635509 -0.003137828234076853 -0.08554319334516436 
0.0007371942593746742 -0.001440530637371369 -0.0004110621727582007 -0.0009883926913939404 -0.000981748362249926 -0.0005283470750108474 -0.0005135163292489556 
0.003363751583469372 -0.0007096059486511097 -0.001120465700703849 -0.0003162889459235375 -0.001735747387161816 -0.00214682509442734 -0.001355599043266196 
0.009178101962489513 -0.005372972342670122 -0.003758065984969199 -0.003883451092979938 -0.01476219418026348 -0.004545778152910913 -0.005497569010522671 
-0.1532510507075764 -0.06733560146593563 -0.01203641242964603 -0.02796230885790556 -0.01618220028045992 0.3661330064436796 -0.01034306266977913 
0.03200544284512401 -0.00151532118049024 -2.277505911996104e-05 -0.003580918054080857 -0.0005152022118450713 -0.009956791515982898 -0.0008117971351807102 
0.0001980678949772411 -0.000523629717756832 -0.000789630273796547 -0.0003161356109069676 -0.0003820687578189493 -0.0003158274011884232 -0.0004587526600859622 
0.0004659289441529717 -0.001804399203334212 -0.0003535427625291109 -0.0009815654201568017 -0.00198956903079928 -0.0002849569144750551 -0.0009193730055332989 
0.09161318123266379 -0.03391337440342826 -0.0117428831950526 -0.02882804409610976 -0.01721081471723876 -0.04886424586673919 -0.01163721863616787 
0.0514122129416181 -0.02990929354600185 -0.007698204587834642 -0.006859506507072328 -0.005401210998760583 -0.02839580734782846 -0.004957666885884331 
0.1051210425286224 -0.0003425184819914218 -0.006612647575123576 -0.0008468472056816411 -0.05815264576635957 -7.745057738180888e-05 -0.01290658542830968 
0.1051210425286224 -0.0003425184819914218 -0.006612647575123576 -0.0008468472056816411 -0.05815264576635957 -7.745057738180888e-05 -0.01290658542830968 
0.2129397168156117 -0.009244652034466351 -0.007170353315247632 -0.0242520935071094 -0.06963621093297637 -0.01647978843416665 -0.01516034476297417 
0.6285059839559519 -0.193781786878704 -0.01900498424488713 -0.08614135435562977 -0.03195179818574689 -0.2246641878746206 -0.0187485509635919 
0.5032378934885525 -0.08612388125610805 -0.01211204427482231 -0.02775030188577872 -0.01086750555370112 -0.2955703611637622 -0.009056427031707158 
0.001118573858204828 -5.507096523924637e-05 -0.001233753690007563 -6.000455552971354e-05 -0.001527441886717071 -4.43855564753997e-05 -0.003229353616424581 
0.1736350559048549 -0.04428801538877554 -0.0336155525696662 -0.159579524954382 -0.06985550232029528 -0.08688963361399667 -0.0435061704123381 
0.002479803543324203 -0.0002258576473453404 -0.0002448494848328644 -0.004078165667288118 -0.0007058761237327416 -0.002851660511019081 -0.0007031993921527255 
0.1920403939061758 -0.03070337805716048 -0.02678907614417206 -0.1836045408341238 -0.0856901616244006 -0.1225495066719967 -0.06246969298572123 
-0.1340370781364363 0.1086941624469673 -0.04030057243533451 0.1762212425749157 -0.3207998842422132 0.07406912344301285 -0.1215069225580576 
0.005365167631606951 -0.0003231734031328391 -0.0003910753674309087 -0.001467712888473008 -0.001952816016390218 -0.001394153432514964 -0.00268236762464052 
0.00084539310053084 -0.0005682644785048077 -0.0002302305562402624 -0.0003801116661632144 -0.001540745904407676 -0.0001948815249066979 -0.0006723995410660762 
0.00084539310053084 -0.0005682644785048077 -0.0002302305562402624 -0.0003801116661632144 -0.001540745904407676 -0.0001948815249066979 -0.0006723995410660762 
0.03002566790878013 -0.009529617449071097 -0.0001028049656164567 -0.008621280706404392 -0.001757052190349668 -0.0005640237601253117 -0.0006674737273591329 
0.03002566790878013 -0.009529617449071097 -0.0001028049656164567 -0.008621280706404392 -0.001757052190349668 -0.0005640237601253117 -0.0006674737273591329 
-0.1801766555809728 0.2369215807417086 -0.006650307434041691 -0.04707297728237676 -0.02609231529993835 -0.03067280608595854 -0.005781481436621223 
-0.2651327577338794 0.7836734056511042 -0.1023583438395689 -0.05602112842320742 -0.1351427799707189 -0.03430150180725555 -0.0703822925260166 
-0.1801766555809728 0.2369215807417086 -0.006650307434041691 -0.04707297728237676 -0.02609231529993835 -0.03067280608595854 -0.005781481436621223 
-0.08405067478824459 -0.01567868506083485 0.3031197667847546 -0.003067930963979392 -0.07419520704253026 -0.01079706482483713 -0.1428152733244166 
-0.1978172235364825 -0.02582743179692891 0.6571425141272086 -0.01257166286473495 -0.1824738343372025 -0.01351120186631169 -0.1738399731577464 
0.07995382608272858 -0.0002896591907097344 -0.02901883833200699 -0.0002521097717238588 -0.09020256769291896 -8.836656105865159e-05 -0.03160481762085414 
0.00352560769496272 -0.0001401114615362838 -0.005992937260879485 -0.0001625572749797335 -0.00562905390947766 -4.756519505368624e-05 -0.005877267877012911 
0.002638537845965269 -0.001639797022696381 -0.0001266601910784267 -0.002509862087052259 -0.0003812208420876134 -0.004675904675181873 -0.0004199904573466863 
0.001230049848436565 -0.0008138781582681056 -0.0009828119043552147 -0.0012216816878216 -0.00142249787432208 -0.0004352722692617738 -0.001550855862686807 
-0.04502355703919745 -0.01753424102167866 -0.01360181128790094 -0.1545660256699807 -0.1086395471244 0.367668569975506 -0.05534838663252775 
0.1168567961120113 -0.007464827457742061 -0.02173103261696927 -0.05244306087209416 -0.04355308501389703 -0.02130363860299091 -0.06363277619808223 
0.04234437112771003 -0.01894217361301576 -0.004971609162189747 -0.01299732713524923 -0.0274621182428492 -0.008163532123538359 -0.01193281302907204 
0.01739269844091634 -0.00153306405302336 -0.001073031756085022 -0.0005279462705759825 -0.01550347018070257 -0.0003684372518260522 -0.001810897896914443 
0.005807482024365385 -0.001135044908686008 -0.0005515217102205653 -0.002204539126542779 -0.02345214623698596 -0.006567539530038424 -0.004443997488312157 
0.002168163606608345 -0.003766745610191894 -0.001951881104507197 -0.003375135095868905 -0.001783176414134305 -0.003347708599885386 -0.002126584658319841 
0.002168163606608345 -0.003766745610191894 -0.001951881104507197 -0.003375135095868905 -0.001783176414134305 -0.003347708599885386 -0.002126584658319841 
0.002089516805450587 -0.001311345605386354 -0.0009700121850387357 -0.003083034480369927 -0.001026868275405875 -0.004092339377664444 -0.001614695729775296 
0.002089516805450587 -0.001311345605386354 -0.0009700121850387357 -0.003083034480369927 -0.001026868275405875 -0.004092339377664444 -0.001614695729775296 
0.001398783663667171 -0.001874813391688088 -0.0003142321414553445 -0.002427928990355184 -0.001402669575517023 -0.000922999541963816 -0.001694150980154473 
0.001398783663667171 -0.001874813391688088 -0.0003142321414553445 -0.002427928990355184 -0.001402669575517023 -0.000922999541963816 -0.001694150980154473 
0.001797973505246047 -0.0003930660305900925 -0.0002933250926463845 -0.0004321678967278172 -0.003216762932049844 -0.0004259579678836069 -0.0007441600416280642 
0.08528391307099673 -0.003168471035934952 -0.0009362745139981444 -0.01291216362301772 -0.02004206231351471 -0.01849428414096768 -0.003807933053832566 
0.03950865971460533 -0.001880668038975306 -0.0009328338926045234 -0.005712150757513823 -0.02260177403945961 -0.008487765551350342 -0.008459492875583249 
0.01114523527988262 -0.005503466366347132 -0.001470591352260003 -0.002566357738553974 -0.006076951616008715 -0.00139254663211623 -0.005375561292475751 
0.03925964243389659 -0.03808455001183891 -0.04436957115555631 -0.03658841577591356 -0.04438539360562855 -0.04189558236655852 -0.05179842885645536 
0.04168977121846183 -0.0437994236910878 -0.03452682591701098 -0.04711880426122282 -0.03772842649865177 -0.04329378748240775 -0.03468055998310676 
0.2806845558825117 -0.09796781883680616 -0.03514565895323415 -0.07715156460629827 -0.04028003938326208 -0.1548521999672251 -0.04614542979695598 
0.0008127334643120383 -0.0006024185338016982 -0.00148018148875926 -0.001441897980677995 -0.001524313104129571 -0.0003323488712975119 -0.0009967922864315202 
0.0547827816910758 -0.03374424252395677 -0.02253313054552148 -0.03518746271111049 -0.05876957393720403 -0.0311152040572644 -0.03125471817326342 
0.005131550518558632 -0.0001027753848422729 -0.0001020232783061728 -0.00866244174950984 -0.0005227990260394292 -0.004410240629632006 -0.0003677262893851221 
0.007842718881055786 -0.0002422500145258247 -0.001058094889956939 -0.003820524999145414 -0.005837849401655989 -0.0008511028531083437 -0.0009516232286792925 
0.1251956678213826 -0.01541933245789292 -0.01176145097461809 -0.05620109149579139 -0.04978905992018368 -0.07443938821348069 -0.02618160130137837 
0.05425471554017379 -0.01960208056982814 -0.01285010664509394 -0.01530968185864692 -0.04140897780828807 -0.005498236836031708 -0.01724848418505364 
0.1015700903691174 -0.02072735469373523 -0.06473747702746292 -0.04390175673359888 -0.08890650591569293 -0.06895344632413884 -0.1347812687272342 
0.1801723692775437 -0.01026466709314804 -0.001549347115893933 -0.0471082581795169 -0.006396927338083827 -0.05972680102978305 -0.003753004968481909 
-0.08602222079574764 -0.07104970484859092 -0.008211084544363725 -0.06024961227459767 -0.02940062785060042 0.3037480336174146 -0.01320691287272363 
0.1169920876302878 -0.06747439572703515 -0.01722517915892621 -0.1263475929139374 -0.06758210970567179 -0.08307824008625123 -0.03130284752235373 
0.1205622012069883 -0.03875513638521579 -0.04727491294400901 -0.06769932649170321 -0.148044733970368 -0.04339267186833905 -0.09777186416824074 
0.3106673215893536 -0.09994537474339278 -0.1254026663620361 -0.1102791005124265 -0.2924284758255005 -0.1232770616775496 -0.1355636029924317 
0.01924247152019083 -0.002749465805305776 -0.002572855814808456 -0.01142563040737743 -0.06435120958733188 -0.01175294583468228 -0.009581194489373989 
0.1645160693685919 -0.1103739821942111 -0.0488304943395623 -0.121236937546594 -0.2466807521272096 -0.1687759583410199 -0.1001323485228793 
-0.1012774546184207 -0.1777764790685931 -0.1064238682679186 -0.1405329620263574 -0.1635624591292243 0.3475656751882799 -0.1595837193065052 
0.01362168353803035 -0.006127848702492668 -0.008712377882726323 -0.005724733206484614 -0.009934541373331161 -0.01363973472981858 -0.01298733154555477 
0.002274579995218443 -0.001735344044553055 -0.0008340436334605793 -0.00224452217176267 -0.002856916366450949 -0.002675806006523872 -0.001850246805600955 
0.01474791195226946 -0.004041494689410739 -0.05751730620384719 -0.00528557725954381 -0.01532343321808196 -0.002711231518374125 -0.034580451963808 
0.001534800673189979 -0.001238509527192331 -0.0004882225676529981 -0.002753605648662657 -0.002942493226726393 -0.0003593815809392041 -0.001041632500974659 
0.2320722558997604 -0.02280720733278797 -0.009603905991421802 -0.07830965070077028 -0.01017495853846228 -0.1078795916288853 -0.005121276460231621 
0.2320722558997604 -0.02280720733278797 -0.009603905991421802 -0.07830965070077028 -0.01017495853846228 -0.1078795916288853 -0.005121276460231621 
0.02006410477230741 -2.638402172703751e-05 -0.007648468806552009 -0.0001780785378594755 -0.01157941122214603 -4.021510530836897e-05 -0.004784993299926669 
0.02797361879934761 -0.0003678699163204417 -0.007704174674643146 -0.002223410037717651 -0.01172369740541246 -0.003104773120785897 -0.004895741346339209 
0.002463866170175589 -0.0005928627422526725 -0.0002330788601647781 -0.001508903122287712 -0.001163085843954158 -0.0009425341446033446 -0.0006471390072853576 
0.001241913528641149 -0.000297398953487261 -0.0001166663997645037 -0.0007572388349342528 -0.0005835453759712495 -0.0004730531465370982 -0.0003242908982847003 
0.1035018594758264 -7.065437087473451e-05 -0.0004419245473286846 -0.02276603289413365 -0.001041962714674945 -0.01400438994957365 -0.001061078410484692 
0.0002141624465310287 -0.0005810391518792937 -5.19212280032809e-05 -0.0003602718960907751 -0.0002273644753130165 -0.0004013817657516299 -0.0002119611819198547 
0.004933799377391013 -0.004965738506316792 -0.001227414900305329 -0.003024991023894494 -0.001548540300044341 -0.0004789849720126367 -0.002231835695345345 
0.2518758028927184 -0.2619085318406064 -0.262653561801879 -0.2436600413814992 -0.2699700994060449 -0.2904362324388012 -0.2520214522221826 
1.974019640198169 -1.457796878845015 -1.561051261743429 -1.584893476700142 -1.676471193207141 -1.535880277302736 -1.661235271848824 
0.006059597566870093 -0.01968940392993264 -0.000684323303498395 -0.004670449372002816 -0.000864401872189328 -0.001140487725192078 -0.001706096868151152 
0.0002471576582855889 -0.001591142144510474 -0.00536219395624493 -0.002196194526212654 -0.004745586272275649 -0.00111349086760858 -0.002950924533801418 
0.1848202060114376 -0.3024805397875898 -0.2367397634848931 -0.1930896205740868 -0.2455166486900284 -0.234936266415944 -0.2493112196705591 
0.14248205034375 -0.1588277188431441 -0.1481091569411427 -0.1994462068696386 -0.1797328978491247 -0.2077719015522145 -0.2057254386944589 
0.4679676916574984 -0.2187981842162654 -0.02884306209145052 -0.1270303725829272 -0.04599895219077045 -0.303246364868015 -0.02883377620120455 
0.0317592067914696 -0.005873582881190695 -0.006995649315970505 -0.007747445284368528 -0.02544829180940146 -0.004091822892722972 -0.02416830593381905 
0.359673612938988 -0.01856192491037212 -0.06350513016967246 -0.07219089434021214 -0.1551226396728814 -0.145286010113527 -0.08594591763158532 
0.8162813077410601 -0.2826996973103815 -0.1853736312915312 -0.1412580919513663 -0.1467091353968718 -0.5498753406478712 -0.1149768521377226 
0.005023194724161607 -0.00295607378930959 -0.001435859422828213 -0.005040936423482917 -0.009706220720058587 -0.004086825534668524 -0.007657731850580034 
0.02248551859766378 -0.002426986744347877 -0.005402257335672979 -0.01160460031461937 -0.01876969600401775 -0.003461376307110543 -0.02990150739704276 
0.009683208505807617 -0.005551175837286428 -0.001212246148658853 -0.00243643763617284 -0.004589300534851634 -0.0007895857112140176 -0.002350359913876715 
0.2976898311347912 -0.1054166972055378 -0.05859131951479501 -0.08440542593898498 -0.1098674013788204 -0.1065552378921031 -0.137375612471808 
0.01356400857635291 -0.00285058681254186 -0.001085652759069702 -0.003979196688436469 -0.003971530805655186 -0.002535880394880593 -0.005369153764139799 
0.009422084320476216 -0.00299755998864494 -0.001805011212395492 -0.003347273569540825 -0.003670607700784274 -0.0005984838830045564 -0.003026598606707142 
0.185212648103403 -0.07560190710362565 -0.04958946199214335 -0.05300572635217674 -0.06466460777870775 -0.02306067548278269 -0.08983175822483903 
0.09722068297042016 -0.109475342083434 -0.06531946617212625 -0.06707965063539087 -0.1007238490521315 -0.02710649084045819 -0.06237198459222015 
0.00131316331719489 -0.001045486482499961 -0.001150089873793343 -0.001033013968584398 -0.002745627499419289 -0.0004121945489200516 -0.0009593143281148412 
0.02820377758367646 -0.001876485673068036 -0.0007391501871343614 -0.00946598679404278 -0.003607516588644318 -0.0106900010287432 -0.002918574887834758 
0.01806756674772006 -0.0006415734304816112 -0.001632018697483145 -0.002893862576662039 -0.01348383786728497 -0.007400884049566727 -0.006651932443609953 
-0.3937382832407272 -0.451401119691915 -0.3700127575080455 0.3082616184097719 -0.4606903629388508 0.0764749695311597 0.3054129825540701 
0.1301138462282189 -0.2373988578726095 -0.2861253534233503 -0.4018363681412875 -0.2573515544409132 -0.07975247203795197 -0.2662931560130116 
0.4013276652792243 -0.2687922818842094 -0.2647017313411298 -0.1979658629013935 -0.3199972898045115 -0.3807748839379053 -0.2545530549569811 
0.3853404349054398 -0.1290338342498686 -0.1697582606319498 -0.3533797922291826 -0.3331030690785382 -0.4102491081772049 -0.2174529150514416 
0.3277175659144835 -0.68697020197823 -0.2964126693783881 -0.2108809602393184 -0.2607686183226837 -0.1867610252396427 -0.2129000607197793 
0.1394326707322557 -0.2031055207494435 -0.1577528553859819 -0.2346495575411898 -0.1980133250172129 -0.2325136058117189 -0.1854232699816814 
0.002651479840761214 -0.003018141469198323 -0.0005024723278829173 -0.003809481746121019 -0.002610579245224598 -0.003737783832590618 -0.002107854591766133 
0.04397482660582445 -0.003704371162019812 -0.001365928782579741 -0.003765290780748667 -0.006117189725743466 -0.007702326009972479 -0.009415025101654408 
0.002644188028381518 -0.002330026286288824 -0.001113385809917583 -0.001753749453998551 -0.002982175711265863 -0.0008530675489807966 -0.001309035098139808 
0.005069880072104729 -0.0004289707948095621 -0.0003093806117801294 -0.0007445022048689891 -0.000895821841169127 -0.01382583379099191 -0.0009257433579024082 
0.006845336717531982 -0.000885792185310342 -0.004372171848942527 -0.001323892405060601 -0.004537210650848693 -0.002881379985520814 -0.005601715356001823 
0.00753547897111613 -0.001101586468353625 -0.0005172564213039918 -0.0008271107225033144 -0.0007308551416975465 -0.000601612435588145 -0.002972869426838842 
-0.1360031309983934 -0.2124177688538952 -0.1436922868662911 -0.2433760638183619 0.2728763057039025 0.4044865867614222 -0.1029567741837351 
-0.3216607747864236 -0.003345668357697425 -0.0002077811013528683 -0.03668039894811542 -0.005604279932994202 0.6929288519031787 -0.003241593863197936 
-0.2481647368196662 -0.02926697084350008 -0.006215250045133395 -0.02920444519303666 -0.03767282392750356 -0.2663716518791354 0.6298246357828478 
-0.07597453527929106 0.347237213574359 -0.07710043078311123 -0.1594627687603652 -0.1730567257851643 -0.2244199587503221 -0.136068760340597 
0.2539007908544068 -0.09117311351919592 -0.07352556843932849 -0.09831364276480171 -0.1561362834975188 -0.08594915276721865 -0.1462162251891939 
0.9321110135495307 -0.2537401942045052 -0.1500855653889869 -0.2038209495655444 -0.2361483535357368 -0.6053816812697597 -0.1593585209385578 
0.231257635968098 -0.01304423340464503 -0.05843202429287798 -0.08740960774712599 -0.111178016312555 -0.05845499210434927 -0.1011849349519773 
0.1253962653597102 -0.0621488200859217 -0.01825755005009094 -0.0356753817779555 -0.08272835874559097 -0.02301081650157709 -0.04155155068810374 
0.01369428990072831 -0.01202456931937377 -0.006131575858987232 -0.004044446500682001 -0.004477384039093346 -0.002143247230640886 -0.00313746430366793 
0.002422006886678673 -0.003476349651348039 -0.001408039589817974 -0.001916794014308566 -0.003094838164871124 -0.001550907018825688 -0.001828486013150541 
0.003313706016009363 -0.005113277269242868 -0.003345138995756893 -0.003042990410248237 -0.002669309673358591 -0.00295516454577039 -0.002294344975307388 
0.006691934273002478 -0.00227095005682771 -0.0008316485375097937 -0.001557180993619334 -0.001768773769105856 -0.001143944413709216 -0.002314765722766393 
0.02141557977424209 -0.002627214732680912 -0.0004041151164215097 -0.004927345622280302 -0.001501770614675447 -0.00676792107701408 -0.002336428471249271 
0.01371478516091662 -0.007400315154945099 -0.0005958117560448017 -0.01030583783814345 -0.002631680859626141 -0.003999292911599695 -0.003060130491808977 
0.03217569794353257 -0.02055086485414911 -0.001368904237588789 -0.009054510258440701 -0.01077560595716791 -0.0009281286910696177 -0.005357481566407843 
0.01147718092372946 -0.006967098137357195 -0.000373988917029023 -0.00211899532389808 -0.003611928741067204 -0.0001699187852315481 -0.001305566507384644 
0.01880014468292892 -0.007638536348467025 -0.0007319381388792307 -0.003891705594132824 -0.00578024488820561 -0.002104280056502164 -0.00353808683520856 
-0.1846951768471681 0.3032461649673051 -0.007485806818820034 -0.04814377850054562 -0.03293459792116986 -0.0311491389040525 -0.007088217693569765 
-0.1894940915047579 0.3047409528113289 -0.007296165015540874 -0.04739944980123118 -0.02867448814548321 -0.03076146781478595 -0.006151982914242284 
-0.1894940915047579 0.3047409528113289 -0.007296165015540874 -0.04739944980123118 -0.02867448814548321 -0.03076146781478595 -0.006151982914242284 
-0.05704328948539755 -0.06630400864882921 0.3720717370544923 -0.01015333690103821 -0.07464317233237422 -0.005930516496055895 -0.09566005486219915 
-0.2268294449281675 0.3834628030744188 0.3639569784804302 -0.07338944759464087 -0.07637010483867189 -0.2357752303090199 -0.09938960240662351 
0.03450560970289376 -0.0006252655530213225 -0.009342734442252126 -0.0006989123994938927 -0.04635893319690803 -0.0003591061682415406 -0.04160150824164992 
0.02547207626017165 -0.000419885837204857 -0.005467801334341841 -0.0005521828268293664 -0.01883951767398149 -0.000227351152334251 -0.01889202738137945 
0.002870035131374603 -0.0008487802904682014 -0.001633338371138896 -0.003504829975832825 -0.003229857177256604 -0.0004207464859730192 -0.004921755485863799 
0.001285604870221651 -0.002782762717702062 -0.001961252447806404 -0.001115804789530651 -0.001717011595205475 -0.0003922958979062936 -0.001290136148356004 
0.0001562156986494151 -0.0003221047988889108 -0.0003577142544294308 -0.0004205191679025063 -0.0009193607442708211 -0.0003328459025187154 -0.001166136934811056 
0.01038095502268844 -0.000290016339419445 -0.0007060295696187383 -0.002044972584699027 -0.002777610171165812 -0.001199816951146845 -0.003826289456403082 
0.01152266655954771 -0.006123515066317944 -0.000189574164395028 -0.001820561645157412 -0.009383040563188002 -0.0003434826989493042 -0.0007426961649638604 
0.01152266655954771 -0.006123515066317944 -0.000189574164395028 -0.001820561645157412 -0.009383040563188002 -0.0003434826989493042 -0.0007426961649638604 
0.3573054656275213 -0.09701177282442063 -0.003195519178556211 -0.02567083496787848 -0.01650979224869658 -0.2742996761430915 -0.009021054658232592 
0.00084428060972088 -3.798931954485632e-05 -0.01302892292672139 -0.0001077052534779778 -0.007302916904833773 -5.913547941162166e-05 -0.01262114551557261 
0.6872658931798414 -0.5196032696030772 -0.5686588434904843 -0.6130597771794688 -0.5677863237197788 -0.3841983258872739 -0.6379737855902761 
1.34946619406075 -0.834442654591782 -0.7749928730813161 -0.8858792531076253 -0.917988060405064 -0.7669154739098878 -0.8047292640165051 
0.07823912619400294 -0.04375907223014852 -0.05741621148745447 -0.02638552234755337 -0.03254323676589448 -0.02847898990863821 -0.0346320959062985 
0.7887212705999183 -0.8209531430471548 -0.5830586800715696 -0.5702308012983701 -0.5336294450640158 -0.6189807228823003 -0.4497821717018838 
1.246441911834912 -1.106823763133051 -0.7929241748037561 -0.8660564286534926 -0.958577940538145 -0.904028083724736 -0.6995079407696566 
0.2670453633490554 -0.3156536205583934 -0.3939610529740107 -0.6266133554898902 -0.5147031111339359 -0.5631452737992744 -0.4445195086759408 
0.9348600275150331 -0.6054999026744362 -0.9303689244527238 -1.04543965204272 -0.911837629734218 -1.260296629490295 -0.7693018778756847 
0.02599328697034642 -0.01980967764656238 -0.01310992506738924 -0.02571112429340998 -0.03098701651383805 -0.02721185068800472 -0.025816256598297 
0.01027744538118721 -0.01195025677799318 -0.008217326689097687 -0.01059950685534187 -0.01207165212765092 -0.01270234559047201 -0.01150169439109757 
0.0007802077419307212 -0.001124609086205955 -0.0004951407443665105 -0.0007117774840834697 -0.0005611392423708179 -0.0003807060659162348 -0.0009359098833083337 
0.003965627857684202 -0.0001554000396463358 -0.0002855167598392074 -0.002528038726589606 -0.0007488553440502379 -0.001762424581590559 -0.001154775854135758 
0.001037114340274255 -0.002178482980757188 -0.0008302102183918149 -0.001220274325811353 -0.001236997049471772 -0.0006336586538283376 -0.0008401332752000558 
0.001037114340274255 -0.002178482980757188 -0.0008302102183918149 -0.001220274325811353 -0.001236997049471772 -0.0006336586538283376 -0.0008401332752000558 
0.05120048710271873 -0.007577326561959709 -0.03438055405112184 -0.02215446093633774 -0.04149299796447186 -0.08322440372693679 -0.0559164440030255 
0.001378075441703255 -0.0008880041978458764 -0.001405474982829617 -0.001303185841754314 -0.001009382554781265 -0.003665727298456432 -0.002467551211496664 
0.001597033699538906 -0.002799907472580896 -0.0007164688715348167 -0.002444265189683547 -0.001555399337814467 -0.002486795206274946 -0.0009850851225618182 
0.03807417653343059 -0.04164712468837866 -0.007274111979048492 -0.05928475281293543 -0.03099655384056565 -0.05490240276729136 -0.01971086879117519 
0.03273455546497691 -0.01551382646107568 -0.02734901035374179 -0.04753644436034044 -0.03067262232392222 -0.02510758954542587 -0.06328736928001866 
0.09637346602675563 -0.003251968874983587 -0.00310936884670117 -0.02282824716160767 -0.07463436781044248 -0.06208458282042104 -0.01640061663678878 
0.02815351950349996 -0.00628612236911582 -0.003253998007254343 -0.003925680639882186 -0.04774420993769696 -0.005996507489905754 -0.01991341066198205 
0.006117289318869492 -0.0007851821662436965 -0.001575369087927139 -0.003849683748901733 -0.01453737184557366 -0.005830511660460349 -0.003528897282350566 
-0.1174370406372415 -0.01234158791691109 -0.05649171702895974 -0.003854418828624708 -0.08043276571118349 -0.004126435431185248 0.4134752815568583 
0.03677455014246277 -8.253116424978479e-05 -0.03594646172926541 -8.859931581626062e-05 -0.01275585570255833 -6.083102865865583e-05 -0.03396051693632344 
0.00753547897111613 -0.001101586468353625 -0.0005172564213039918 -0.0008271107225033144 -0.0007308551416975465 -0.000601612435588145 -0.002972869426838842 
-0.1683435285704571 0.4470380930422286 -0.008333935645351384 -0.0641107264336839 -0.002387435238925397 -0.2301649739463572 -0.004111374138180904 
0.0179740367909914 -0.01250744064886492 -0.003923018019873601 -0.009021420661419897 -0.02877005043191351 -0.007101583800563937 -0.02328484849533788 
